model=<ensemble><tree id="1" weight="0.1"><split><feature>4</feature><threshold>1999.0</threshold><split pos="left"><feature>2</feature><threshold>1.0</threshold><split pos="left"><output>-1.0279065370559692</output></split><split pos="right"><feature>1</feature><threshold>215728.5</threshold><split pos="left"><feature>4</feature><threshold>1998.0</threshold><split pos="left"><output>0.7788188457489014</output></split><split pos="right"><feature>3</feature><threshold>0.0</threshold><split pos="left"><feature>1</feature><threshold>107864.25</threshold><split pos="left"><feature>1</feature><threshold>0.0</threshold><split pos="left"><output>1.4120330810546875</output></split><split pos="right"><feature>2</feature><threshold>2.0</threshold><split pos="left"><output>-0.18371149897575378</output></split><split pos="right"><output>0.4141233563423157</output></split></split></split><split pos="right"><output>0.23102298378944397</output></split></split><split pos="right"><output>-0.9919838309288025</output></split></split></split><split pos="right"><output>0.8299832344055176</output></split></split></split><split pos="right"><feature>1</feature><threshold>107864.25</threshold><split pos="left"><output>0.6381869912147522</output></split><split pos="right"><output>1.5584298372268677</output></split></split></split></tree><tree id="2" weight="0.1"><split><feature>1</feature><threshold>107864.25</threshold><split pos="left"><feature>3</feature><threshold>0.3014258</threshold><split pos="left"><output>-1.5356158018112183</output></split><split pos="right"><feature>4</feature><threshold>2014.0</threshold><split pos="left"><output>0.3041519522666931</output></split><split pos="right"><output>1.0880205631256104</output></split></split></split><split pos="right"><feature>3</feature><threshold>2.531977</threshold><split pos="left"><feature>3</feature><threshold>0.0</threshold><split pos="left"><output>0.7076480984687805</output></split><split pos="right"><feature>3</feature><threshold>1.145418</threshold><split pos="left"><feature>2</feature><threshold>8.0</threshold><split pos="left"><feature>1</feature><threshold>2696606.2</threshold><split pos="left"><feature>1</feature><threshold>647185.5</threshold><split pos="left"><output>1.5011767148971558</output></split><split pos="right"><output>1.338983416557312</output></split></split><split pos="right"><output>1.6981110572814941</output></split></split><split pos="right"><output>1.7482326030731201</output></split></split><split pos="right"><output>1.578366994857788</output></split></split></split><split pos="right"><output>1.805783748626709</output></split></split></split></tree><tree id="3" weight="0.1"><split><feature>1</feature><threshold>107864.25</threshold><split pos="left"><feature>4</feature><threshold>2014.0</threshold><split pos="left"><output>-0.9372782707214355</output></split><split pos="right"><feature>3</feature><threshold>0.6631367</threshold><split pos="left"><output>0.4206530749797821</output></split><split pos="right"><feature>3</feature><threshold>0.9042773</threshold><split pos="left"><output>1.274352788925171</output></split><split pos="right"><output>1.1680439710617065</output></split></split></split></split><split pos="right"><feature>3</feature><threshold>2.531977</threshold><split pos="left"><feature>3</feature><threshold>0.0</threshold><split pos="left"><output>0.6150048971176147</output></split><split pos="right"><feature>2</feature><threshold>8.0</threshold><split pos="left"><feature>4</feature><threshold>2012.0</threshold><split pos="left"><feature>1</feature><threshold>3020199.0</threshold><split pos="left"><output>1.3998781442642212</output></split><split pos="right"><output>1.5575929880142212</output></split></split><split pos="right"><output>1.2025034427642822</output></split></split><split pos="right"><output>1.5618335008621216</output></split></split></split><split pos="right"><output>1.595719814300537</output></split></split></split></tree><tree id="4" weight="0.1"><split><feature>1</feature><threshold>107864.25</threshold><split pos="left"><feature>4</feature><threshold>2014.0</threshold><split pos="left"><output>-0.8614662289619446</output></split><split pos="right"><feature>3</feature><threshold>0.6631367</threshold><split pos="left"><output>0.46423274278640747</output></split><split pos="right"><feature>3</feature><threshold>0.9042773</threshold><split pos="left"><output>1.1344276666641235</output></split><split pos="right"><output>1.0508333444595337</output></split></split></split></split><split pos="right"><feature>3</feature><threshold>2.531977</threshold><split pos="left"><feature>3</feature><threshold>0.0</threshold><split pos="left"><output>0.4482438564300537</output></split><split pos="right"><feature>2</feature><threshold>8.0</threshold><split pos="left"><feature>4</feature><threshold>2012.0</threshold><split pos="left"><feature>1</feature><threshold>3020199.0</threshold><split pos="left"><output>1.2283060550689697</output></split><split pos="right"><output>1.4279595613479614</output></split></split><split pos="right"><output>1.1138375997543335</output></split></split><split pos="right"><output>1.4336671829223633</output></split></split></split><split pos="right"><output>1.460047960281372</output></split></split></split></tree><tree id="5" weight="0.1"><split><feature>1</feature><threshold>107864.25</threshold><split pos="left"><feature>3</feature><threshold>0.5425664</threshold><split pos="left"><output>-1.0668038129806519</output></split><split pos="right"><feature>4</feature><threshold>2014.0</threshold><split pos="left"><output>0.3872453272342682</output></split><split pos="right"><feature>3</feature><threshold>0.9042773</threshold><split pos="left"><output>0.8708725571632385</output></split><split pos="right"><output>0.949752688407898</output></split></split></split></split><split pos="right"><feature>3</feature><threshold>2.531977</threshold><split pos="left"><feature>3</feature><threshold>0.0</threshold><split pos="left"><output>0.40533334016799927</output></split><split pos="right"><feature>2</feature><threshold>8.0</threshold><split pos="left"><feature>4</feature><threshold>2012.0</threshold><split pos="left"><feature>1</feature><threshold>3020199.0</threshold><split pos="left"><output>1.1220694780349731</output></split><split pos="right"><output>1.3183668851852417</output></split></split><split pos="right"><output>1.0038951635360718</output></split></split><split pos="right"><output>1.3399953842163086</output></split></split></split><split pos="right"><output>1.3675564527511597</output></split></split></split></tree><tree id="6" weight="0.1"><split><feature>1</feature><threshold>107864.25</threshold><split pos="left"><feature>3</feature><threshold>0.5425664</threshold><split pos="left"><output>-0.9994930624961853</output></split><split pos="right"><feature>4</feature><threshold>2014.0</threshold><split pos="left"><output>0.3897627592086792</output></split><split pos="right"><feature>3</feature><threshold>0.9042773</threshold><split pos="left"><output>0.7856017351150513</output></split><split pos="right"><output>0.8662734031677246</output></split></split></split></split><split pos="right"><feature>3</feature><threshold>2.531977</threshold><split pos="left"><feature>3</feature><threshold>0.0</threshold><split pos="left"><output>0.3040505647659302</output></split><split pos="right"><feature>2</feature><threshold>8.0</threshold><split pos="left"><feature>4</feature><threshold>2012.0</threshold><split pos="left"><feature>1</feature><threshold>3020199.0</threshold><split pos="left"><output>1.0342202186584473</output></split><split pos="right"><output>1.2341015338897705</output></split></split><split pos="right"><output>0.9188988208770752</output></split></split><split pos="right"><output>1.2523691654205322</output></split></split></split><split pos="right"><output>1.2935230731964111</output></split></split></split></tree><tree id="7" weight="0.1"><split><feature>3</feature><threshold>0.60285157</threshold><split pos="left"><feature>1</feature><threshold>107864.25</threshold><split pos="left"><output>-0.8581481575965881</output></split><split pos="right"><feature>4</feature><threshold>1996.0</threshold><split pos="left"><output>1.2862129211425781</output></split><split pos="right"><output>0.26934728026390076</output></split></split></split><split pos="right"><feature>1</feature><threshold>107864.25</threshold><split pos="left"><feature>4</feature><threshold>2014.0</threshold><split pos="left"><output>0.42883235216140747</output></split><split pos="right"><feature>3</feature><threshold>0.6631367</threshold><split pos="left"><output>-0.4057581424713135</output></split><split pos="right"><feature>3</feature><threshold>0.9042773</threshold><split pos="left"><output>0.857917845249176</output></split><split pos="right"><output>0.7949649691581726</output></split></split></split></split><split pos="right"><feature>3</feature><threshold>2.531977</threshold><split pos="left"><feature>2</feature><threshold>8.0</threshold><split pos="left"><output>1.0227293968200684</output></split><split pos="right"><output>1.2905707359313965</output></split></split><split pos="right"><output>1.2383476495742798</output></split></split></split></split></tree><tree id="8" weight="0.1"><split><feature>3</feature><threshold>0.60285157</threshold><split pos="left"><feature>1</feature><threshold>107864.25</threshold><split pos="left"><output>-0.8052703738212585</output></split><split pos="right"><feature>4</feature><threshold>1996.0</threshold><split pos="left"><output>1.2323102951049805</output></split><split pos="right"><output>0.22181549668312073</output></split></split></split><split pos="right"><feature>1</feature><threshold>107864.25</threshold><split pos="left"><feature>4</feature><threshold>2014.0</threshold><split pos="left"><output>0.417861670255661</output></split><split pos="right"><feature>3</feature><threshold>0.6631367</threshold><split pos="left"><output>-0.4620852470397949</output></split><split pos="right"><feature>3</feature><threshold>0.9042773</threshold><split pos="left"><output>0.7730840444564819</output></split><split pos="right"><output>0.7363078594207764</output></split></split></split></split><split pos="right"><feature>3</feature><threshold>2.531977</threshold><split pos="left"><feature>2</feature><threshold>8.0</threshold><split pos="left"><output>0.9605474472045898</output></split><split pos="right"><output>1.2530667781829834</output></split></split><split pos="right"><output>1.197379231452942</output></split></split></split></split></tree><tree id="9" weight="0.1"><split><feature>3</feature><threshold>0.6631367</threshold><split pos="left"><feature>1</feature><threshold>3128063.2</threshold><split pos="left"><feature>1</feature><threshold>107864.25</threshold><split pos="left"><output>-0.7009546160697937</output></split><split pos="right"><feature>1</feature><threshold>1617963.8</threshold><split pos="left"><feature>1</feature><threshold>862914.0</threshold><split pos="left"><output>0.1393311619758606</output></split><split pos="right"><output>0.6623256206512451</output></split></split><split pos="right"><output>-0.7829165458679199</output></split></split></split><split pos="right"><output>1.1601272821426392</output></split></split><split pos="right"><feature>1</feature><threshold>107864.25</threshold><split pos="left"><feature>4</feature><threshold>2014.0</threshold><split pos="left"><output>0.3953556716442108</output></split><split pos="right"><output>0.695450484752655</output></split></split><split pos="right"><feature>3</feature><threshold>2.531977</threshold><split pos="left"><feature>2</feature><threshold>8.0</threshold><split pos="left"><output>0.930540144443512</output></split><split pos="right"><output>1.2246962785720825</output></split></split><split pos="right"><output>1.1627037525177002</output></split></split></split></split></tree><tree id="10" weight="0.1"><split><feature>3</feature><threshold>0.6631367</threshold><split pos="left"><feature>1</feature><threshold>862914.0</threshold><split pos="left"><feature>4</feature><threshold>1999.0</threshold><split pos="left"><output>-0.698005199432373</output></split><split pos="right"><feature>4</feature><threshold>2009.0</threshold><split pos="left"><output>0.6279379725456238</output></split><split pos="right"><output>0.03814723715186119</output></split></split></split><split pos="right"><output>0.6720598340034485</output></split></split><split pos="right"><feature>1</feature><threshold>107864.25</threshold><split pos="left"><feature>4</feature><threshold>2014.0</threshold><split pos="left"><output>0.3713405132293701</output></split><split pos="right"><feature>3</feature><threshold>0.9042773</threshold><split pos="left"><output>0.6426042914390564</output></split><split pos="right"><output>0.6389476656913757</output></split></split></split><split pos="right"><feature>3</feature><threshold>2.531977</threshold><split pos="left"><feature>2</feature><threshold>8.0</threshold><split pos="left"><output>0.8914194107055664</output></split><split pos="right"><output>1.200937271118164</output></split></split><split pos="right"><output>1.1365844011306763</output></split></split></split></split></tree><tree id="11" weight="0.1"><split><feature>3</feature><threshold>0.6631367</threshold><split pos="left"><feature>1</feature><threshold>862914.0</threshold><split pos="left"><feature>4</feature><threshold>1999.0</threshold><split pos="left"><output>-0.6501058340072632</output></split><split pos="right"><feature>4</feature><threshold>2009.0</threshold><split pos="left"><output>0.6126267313957214</output></split><split pos="right"><output>-0.026407137513160706</output></split></split></split><split pos="right"><output>0.5504025816917419</output></split></split><split pos="right"><feature>1</feature><threshold>107864.25</threshold><split pos="left"><feature>3</feature><threshold>2.0496962</threshold><split pos="left"><feature>4</feature><threshold>1980.0</threshold><split pos="left"><output>1.1299272775650024</output></split><split pos="right"><feature>2</feature><threshold>1.0</threshold><split pos="left"><output>0.1698775589466095</output></split><split pos="right"><output>0.7032087445259094</output></split></split></split><split pos="right"><output>-0.45210567116737366</output></split></split><split pos="right"><feature>3</feature><threshold>2.531977</threshold><split pos="left"><output>0.8810633420944214</output></split><split pos="right"><output>1.1104135513305664</output></split></split></split></split></tree><tree id="12" weight="0.1"><split><feature>3</feature><threshold>0.6631367</threshold><split pos="left"><feature>1</feature><threshold>2912334.8</threshold><split pos="left"><feature>1</feature><threshold>107864.25</threshold><split pos="left"><output>-0.6093173623085022</output></split><split pos="right"><feature>4</feature><threshold>2012.0</threshold><split pos="left"><output>0.20490916073322296</output></split><split pos="right"><output>-0.5442153215408325</output></split></split></split><split pos="right"><output>0.967783510684967</output></split></split><split pos="right"><feature>4</feature><threshold>1941.0</threshold><split pos="left"><output>1.3469139337539673</output></split><split pos="right"><feature>1</feature><threshold>107864.25</threshold><split pos="left"><feature>3</feature><threshold>2.0496962</threshold><split pos="left"><feature>4</feature><threshold>1980.0</threshold><split pos="left"><output>0.9029857516288757</output></split><split pos="right"><feature>2</feature><threshold>1.0</threshold><split pos="left"><output>0.15515124797821045</output></split><split pos="right"><output>0.6958552002906799</output></split></split></split><split pos="right"><output>-0.41497859358787537</output></split></split><split pos="right"><output>0.8516785502433777</output></split></split></split></split></tree><tree id="13" weight="0.1"><split><feature>3</feature><threshold>0.60285157</threshold><split pos="left"><feature>1</feature><threshold>647185.5</threshold><split pos="left"><feature>4</feature><threshold>2014.0</threshold><split pos="left"><feature>2</feature><threshold>4.0</threshold><split pos="left"><output>-0.6161851286888123</output></split><split pos="right"><output>0.9080336093902588</output></split></split><split pos="right"><output>0.3800446093082428</output></split></split><split pos="right"><output>0.4329598546028137</output></split></split><split pos="right"><feature>4</feature><threshold>1941.0</threshold><split pos="left"><output>1.3047698736190796</output></split><split pos="right"><feature>1</feature><threshold>107864.25</threshold><split pos="left"><feature>2</feature><threshold>1.0</threshold><split pos="left"><output>0.06562044471502304</output></split><split pos="right"><feature>1</feature><threshold>0.0</threshold><split pos="left"><output>1.2234539985656738</output></split><split pos="right"><feature>4</feature><threshold>2000.0</threshold><split pos="left"><output>0.889930009841919</output></split><split pos="right"><output>0.5405899882316589</output></split></split></split></split><split pos="right"><output>0.7800004482269287</output></split></split></split></split></tree><tree id="14" weight="0.1"><split><feature>3</feature><threshold>0.60285157</threshold><split pos="left"><feature>1</feature><threshold>3235927.5</threshold><split pos="left"><feature>1</feature><threshold>647185.5</threshold><split pos="left"><feature>4</feature><threshold>2014.0</threshold><split pos="left"><output>-0.5849286317825317</output></split><split pos="right"><output>0.35637491941452026</output></split></split><split pos="right"><output>0.3125705420970917</output></split></split><split pos="right"><output>0.9559049606323242</output></split></split><split pos="right"><feature>4</feature><threshold>1941.0</threshold><split pos="left"><output>1.264519453048706</output></split><split pos="right"><feature>1</feature><threshold>107864.25</threshold><split pos="left"><feature>2</feature><threshold>1.0</threshold><split pos="left"><output>0.07131415605545044</output></split><split pos="right"><feature>1</feature><threshold>0.0</threshold><split pos="left"><output>1.0666598081588745</output></split><split pos="right"><feature>4</feature><threshold>2000.0</threshold><split pos="left"><output>0.8347147703170776</output></split><split pos="right"><output>0.514804482460022</output></split></split></split></split><split pos="right"><output>0.7442294359207153</output></split></split></split></split></tree><tree id="15" weight="0.1"><split><feature>3</feature><threshold>0.60285157</threshold><split pos="left"><feature>1</feature><threshold>3235927.5</threshold><split pos="left"><feature>1</feature><threshold>647185.5</threshold><split pos="left"><feature>4</feature><threshold>2014.0</threshold><split pos="left"><output>-0.574184775352478</output></split><split pos="right"><output>0.30945396423339844</output></split></split><split pos="right"><output>0.32888996601104736</output></split></split><split pos="right"><output>0.906993567943573</output></split></split><split pos="right"><feature>2</feature><threshold>1.0</threshold><split pos="left"><output>0.07936622202396393</output></split><split pos="right"><feature>1</feature><threshold>0.0</threshold><split pos="left"><output>0.8424531817436218</output></split><split pos="right"><feature>4</feature><threshold>1941.0</threshold><split pos="left"><output>1.200844168663025</output></split><split pos="right"><feature>1</feature><threshold>107864.25</threshold><split pos="left"><feature>4</feature><threshold>2000.0</threshold><split pos="left"><output>0.8134833574295044</output></split><split pos="right"><output>0.4741651117801666</output></split></split><split pos="right"><output>0.7077434659004211</output></split></split></split></split></split></split></tree><tree id="16" weight="0.1"><split><feature>3</feature><threshold>0.60285157</threshold><split pos="left"><feature>1</feature><threshold>3235927.5</threshold><split pos="left"><feature>1</feature><threshold>647185.5</threshold><split pos="left"><feature>4</feature><threshold>1999.0</threshold><split pos="left"><output>-0.6009445786476135</output></split><split pos="right"><output>0.12521174550056458</output></split></split><split pos="right"><output>0.2750920355319977</output></split></split><split pos="right"><output>0.8567844033241272</output></split></split><split pos="right"><feature>2</feature><threshold>1.0</threshold><split pos="left"><output>0.06812476366758347</output></split><split pos="right"><feature>1</feature><threshold>0.0</threshold><split pos="left"><output>0.7766587734222412</output></split><split pos="right"><feature>4</feature><threshold>1941.0</threshold><split pos="left"><output>1.1712766885757446</output></split><split pos="right"><feature>1</feature><threshold>107864.25</threshold><split pos="left"><feature>4</feature><threshold>2000.0</threshold><split pos="left"><output>0.7580534219741821</output></split><split pos="right"><output>0.44589975476264954</output></split></split><split pos="right"><output>0.672186553478241</output></split></split></split></split></split></split></tree><tree id="17" weight="0.1"><split><feature>3</feature><threshold>0.60285157</threshold><split pos="left"><feature>1</feature><threshold>3235927.5</threshold><split pos="left"><feature>1</feature><threshold>647185.5</threshold><split pos="left"><output>-0.44527196884155273</output></split><split pos="right"><output>0.22996875643730164</output></split></split><split pos="right"><output>0.8118336200714111</output></split></split><split pos="right"><feature>2</feature><threshold>1.0</threshold><split pos="left"><output>0.08386074006557465</output></split><split pos="right"><feature>4</feature><threshold>1941.0</threshold><split pos="left"><output>1.1471794843673706</output></split><split pos="right"><feature>1</feature><threshold>0.0</threshold><split pos="left"><output>0.7116714119911194</output></split><split pos="right"><feature>1</feature><threshold>107864.25</threshold><split pos="left"><feature>3</feature><threshold>2.4114068</threshold><split pos="left"><feature>4</feature><threshold>2003.0</threshold><split pos="left"><output>0.7954780459403992</output></split><split pos="right"><output>0.4495266377925873</output></split></split><split pos="right"><output>-0.4965362250804901</output></split></split><split pos="right"><output>0.635317325592041</output></split></split></split></split></split></split></tree><tree id="18" weight="0.1"><split><feature>3</feature><threshold>0.60285157</threshold><split pos="left"><feature>1</feature><threshold>3235927.5</threshold><split pos="left"><feature>2</feature><threshold>266.0</threshold><split pos="left"><feature>2</feature><threshold>3.0</threshold><split pos="left"><output>-0.39565908908843994</output></split><split pos="right"><output>0.8366022706031799</output></split></split><split pos="right"><output>-0.9828976392745972</output></split></split><split pos="right"><output>0.7626193761825562</output></split></split><split pos="right"><feature>4</feature><threshold>1941.0</threshold><split pos="left"><output>1.203410029411316</output></split><split pos="right"><feature>1</feature><threshold>107864.25</threshold><split pos="left"><feature>3</feature><threshold>2.0496962</threshold><split pos="left"><feature>3</feature><threshold>1.2659885</threshold><split pos="left"><feature>2</feature><threshold>1.0</threshold><split pos="left"><output>0.02130146697163582</output></split><split pos="right"><output>0.44564592838287354</output></split></split><split pos="right"><output>0.9030235409736633</output></split></split><split pos="right"><output>-0.43843114376068115</output></split></split><split pos="right"><output>0.606605052947998</output></split></split></split></split></tree><tree id="19" weight="0.1"><split><feature>3</feature><threshold>0.60285157</threshold><split pos="left"><feature>1</feature><threshold>1186506.8</threshold><split pos="left"><feature>2</feature><threshold>2.0</threshold><split pos="left"><feature>4</feature><threshold>2013.0</threshold><split pos="left"><output>-0.46789443492889404</output></split><split pos="right"><output>0.15631644427776337</output></split></split><split pos="right"><output>0.6348050236701965</output></split></split><split pos="right"><output>0.43810588121414185</output></split></split><split pos="right"><feature>2</feature><threshold>1.0</threshold><split pos="left"><output>0.11801538616418839</output></split><split pos="right"><feature>1</feature><threshold>0.0</threshold><split pos="left"><output>0.6579343676567078</output></split><split pos="right"><feature>4</feature><threshold>1941.0</threshold><split pos="left"><output>1.108731746673584</output></split><split pos="right"><feature>2</feature><threshold>8.0</threshold><split pos="left"><feature>4</feature><threshold>2003.0</threshold><split pos="left"><output>0.607708752155304</output></split><split pos="right"><output>0.4134451746940613</output></split></split><split pos="right"><output>1.1750608682632446</output></split></split></split></split></split></split></tree><tree id="20" weight="0.1"><split><feature>3</feature><threshold>0.6631367</threshold><split pos="left"><feature>4</feature><threshold>1996.0</threshold><split pos="left"><output>0.8355488181114197</output></split><split pos="right"><feature>1</feature><threshold>4098841.5</threshold><split pos="left"><feature>2</feature><threshold>1.0</threshold><split pos="left"><output>-0.6603555679321289</output></split><split pos="right"><feature>1</feature><threshold>0.0</threshold><split pos="left"><output>1.0291767120361328</output></split><split pos="right"><output>-0.1466955542564392</output></split></split></split><split pos="right"><output>0.8333003520965576</output></split></split></split><split pos="right"><feature>1</feature><threshold>107864.25</threshold><split pos="left"><feature>3</feature><threshold>2.0496962</threshold><split pos="left"><feature>4</feature><threshold>1941.0</threshold><split pos="left"><output>1.201507806777954</output></split><split pos="right"><feature>3</feature><threshold>1.2659885</threshold><split pos="left"><output>0.28787314891815186</output></split><split pos="right"><output>0.8384246826171875</output></split></split></split><split pos="right"><output>-0.4393828511238098</output></split></split><split pos="right"><output>0.5954864621162415</output></split></split></split></tree><tree id="21" weight="0.1"><split><feature>3</feature><threshold>0.6631367</threshold><split pos="left"><feature>2</feature><threshold>3.0</threshold><split pos="left"><feature>1</feature><threshold>862914.0</threshold><split pos="left"><feature>3</feature><threshold>0.3014258</threshold><split pos="left"><output>-0.49677202105522156</output></split><split pos="right"><output>0.05496980994939804</output></split></split><split pos="right"><output>0.2985732853412628</output></split></split><split pos="right"><output>0.6589435935020447</output></split></split><split pos="right"><feature>1</feature><threshold>107864.25</threshold><split pos="left"><feature>3</feature><threshold>2.0496962</threshold><split pos="left"><feature>4</feature><threshold>1941.0</threshold><split pos="left"><output>1.1914135217666626</output></split><split pos="right"><feature>3</feature><threshold>1.2659885</threshold><split pos="left"><feature>4</feature><threshold>1999.0</threshold><split pos="left"><output>-0.053741853684186935</output></split><split pos="right"><output>0.3512613773345947</output></split></split><split pos="right"><output>0.804522693157196</output></split></split></split><split pos="right"><output>-0.4271261394023895</output></split></split><split pos="right"><output>0.5590888261795044</output></split></split></split></tree><tree id="22" weight="0.1"><split><feature>3</feature><threshold>0.60285157</threshold><split pos="left"><feature>2</feature><threshold>266.0</threshold><split pos="left"><feature>2</feature><threshold>3.0</threshold><split pos="left"><feature>1</feature><threshold>647185.5</threshold><split pos="left"><output>-0.36066392064094543</output></split><split pos="right"><output>0.27312836050987244</output></split></split><split pos="right"><output>0.8477588891983032</output></split></split><split pos="right"><output>-1.1127687692642212</output></split></split><split pos="right"><feature>2</feature><threshold>1.0</threshold><split pos="left"><output>0.09096518903970718</output></split><split pos="right"><feature>1</feature><threshold>0.0</threshold><split pos="left"><output>0.5099419355392456</output></split><split pos="right"><feature>4</feature><threshold>1944.0</threshold><split pos="left"><output>1.0725234746932983</output></split><split pos="right"><feature>2</feature><threshold>8.0</threshold><split pos="left"><feature>4</feature><threshold>1998.0</threshold><split pos="left"><output>0.6646518111228943</output></split><split pos="right"><output>0.34344130754470825</output></split></split><split pos="right"><output>1.1957025527954102</output></split></split></split></split></split></split></tree><tree id="23" weight="0.1"><split><feature>3</feature><threshold>0.6631367</threshold><split pos="left"><feature>2</feature><threshold>3.0</threshold><split pos="left"><feature>2</feature><threshold>1.0</threshold><split pos="left"><output>-0.6112545728683472</output></split><split pos="right"><feature>1</feature><threshold>0.0</threshold><split pos="left"><output>0.9741683006286621</output></split><split pos="right"><feature>4</feature><threshold>2015.0</threshold><split pos="left"><feature>1</feature><threshold>3128063.2</threshold><split pos="left"><output>-0.13215652108192444</output></split><split pos="right"><output>0.5788223743438721</output></split></split><split pos="right"><output>0.5454300045967102</output></split></split></split></split><split pos="right"><output>0.6007136702537537</output></split></split><split pos="right"><feature>1</feature><threshold>107864.25</threshold><split pos="left"><feature>3</feature><threshold>2.0496962</threshold><split pos="left"><feature>3</feature><threshold>1.2659885</threshold><split pos="left"><output>0.23675411939620972</output></split><split pos="right"><output>0.7735023498535156</output></split></split><split pos="right"><output>-0.4422415494918823</output></split></split><split pos="right"><output>0.5103918313980103</output></split></split></split></tree><tree id="24" weight="0.1"><split><feature>3</feature><threshold>0.6631367</threshold><split pos="left"><feature>2</feature><threshold>266.0</threshold><split pos="left"><feature>2</feature><threshold>3.0</threshold><split pos="left"><feature>2</feature><threshold>1.0</threshold><split pos="left"><output>-0.5720577836036682</output></split><split pos="right"><feature>1</feature><threshold>0.0</threshold><split pos="left"><output>0.9404441118240356</output></split><split pos="right"><feature>1</feature><threshold>4098841.5</threshold><split pos="left"><feature>4</feature><threshold>1988.0</threshold><split pos="left"><output>0.9157240390777588</output></split><split pos="right"><output>-0.11619872599840164</output></split></split><split pos="right"><output>0.6921311020851135</output></split></split></split></split><split pos="right"><output>0.7734566330909729</output></split></split><split pos="right"><output>-1.0651394128799438</output></split></split><split pos="right"><feature>1</feature><threshold>107864.25</threshold><split pos="left"><feature>3</feature><threshold>2.0496962</threshold><split pos="left"><output>0.3259682357311249</output></split><split pos="right"><output>-0.41828563809394836</output></split></split><split pos="right"><output>0.4841633439064026</output></split></split></split></tree><tree id="25" weight="0.1"><split><feature>3</feature><threshold>0.6631367</threshold><split pos="left"><feature>2</feature><threshold>48.0</threshold><split pos="left"><feature>2</feature><threshold>3.0</threshold><split pos="left"><feature>2</feature><threshold>1.0</threshold><split pos="left"><output>-0.5541784763336182</output></split><split pos="right"><feature>1</feature><threshold>0.0</threshold><split pos="left"><output>0.9071301817893982</output></split><split pos="right"><feature>4</feature><threshold>1973.0</threshold><split pos="left"><output>1.3060626983642578</output></split><split pos="right"><output>-0.09243649989366531</output></split></split></split></split><split pos="right"><output>0.854834794998169</output></split></split><split pos="right"><output>-1.0871108770370483</output></split></split><split pos="right"><feature>2</feature><threshold>8.0</threshold><split pos="left"><feature>1</feature><threshold>0.0</threshold><split pos="left"><output>0.011536922305822372</output></split><split pos="right"><feature>4</feature><threshold>1998.0</threshold><split pos="left"><output>0.6027848124504089</output></split><split pos="right"><output>0.30228865146636963</output></split></split></split><split pos="right"><output>1.1980996131896973</output></split></split></split></tree><tree id="26" weight="0.1"><split><feature>3</feature><threshold>0.5425664</threshold><split pos="left"><output>-0.26325780153274536</output></split><split pos="right"><feature>2</feature><threshold>3.0</threshold><split pos="left"><feature>3</feature><threshold>2.1099813</threshold><split pos="left"><feature>3</feature><threshold>1.2659885</threshold><split pos="left"><feature>4</feature><threshold>1980.0</threshold><split pos="left"><output>0.6456796526908875</output></split><split pos="right"><feature>1</feature><threshold>3128063.2</threshold><split pos="left"><feature>1</feature><threshold>1725828.0</threshold><split pos="left"><feature>4</feature><threshold>1999.0</threshold><split pos="left"><output>-0.14538782835006714</output></split><split pos="right"><feature>4</feature><threshold>2011.0</threshold><split pos="left"><output>0.40845733880996704</output></split><split pos="right"><output>0.09945400804281235</output></split></split></split><split pos="right"><output>-1.9278645515441895</output></split></split><split pos="right"><output>0.8706125020980835</output></split></split></split><split pos="right"><output>0.7388114333152771</output></split></split><split pos="right"><output>-0.23988021910190582</output></split></split><split pos="right"><output>1.0496104955673218</output></split></split></split></tree><tree id="27" weight="0.1"><split><feature>3</feature><threshold>0.5425664</threshold><split pos="left"><feature>2</feature><threshold>48.0</threshold><split pos="left"><feature>1</feature><threshold>107864.25</threshold><split pos="left"><output>-0.3592880964279175</output></split><split pos="right"><output>0.13221918046474457</output></split></split><split pos="right"><output>-0.9533942341804504</output></split></split><split pos="right"><feature>2</feature><threshold>3.0</threshold><split pos="left"><feature>3</feature><threshold>2.1099813</threshold><split pos="left"><feature>3</feature><threshold>1.2659885</threshold><split pos="left"><feature>4</feature><threshold>1980.0</threshold><split pos="left"><output>0.5862225294113159</output></split><split pos="right"><feature>4</feature><threshold>1999.0</threshold><split pos="left"><output>-0.14684176445007324</output></split><split pos="right"><feature>4</feature><threshold>2011.0</threshold><split pos="left"><output>0.37987425923347473</output></split><split pos="right"><output>0.09613775461912155</output></split></split></split></split><split pos="right"><output>0.6992660164833069</output></split></split><split pos="right"><output>-0.23613746464252472</output></split></split><split pos="right"><output>0.9866236448287964</output></split></split></split></tree><tree id="28" weight="0.1"><split><feature>4</feature><threshold>1999.0</threshold><split pos="left"><feature>4</feature><threshold>1998.0</threshold><split pos="left"><output>0.3416885733604431</output></split><split pos="right"><feature>3</feature><threshold>0.7234219</threshold><split pos="left"><feature>1</feature><threshold>647185.5</threshold><split pos="left"><feature>2</feature><threshold>1.0</threshold><split pos="left"><output>-0.6009662747383118</output></split><split pos="right"><output>-0.1272171288728714</output></split></split><split pos="right"><output>0.3042086958885193</output></split></split><split pos="right"><output>-1.1871559619903564</output></split></split></split><split pos="right"><feature>4</feature><threshold>2000.0</threshold><split pos="left"><output>0.7140042781829834</output></split><split pos="right"><feature>3</feature><threshold>0.7234219</threshold><split pos="left"><feature>1</feature><threshold>647185.5</threshold><split pos="left"><output>0.06331463158130646</output></split><split pos="right"><output>-0.882593035697937</output></split></split><split pos="right"><feature>1</feature><threshold>107864.25</threshold><split pos="left"><output>0.2621239423751831</output></split><split pos="right"><output>0.5087289214134216</output></split></split></split></split></split></tree><tree id="29" weight="0.1"><split><feature>3</feature><threshold>0.5425664</threshold><split pos="left"><output>-0.22502829134464264</output></split><split pos="right"><feature>2</feature><threshold>3.0</threshold><split pos="left"><feature>3</feature><threshold>2.1099813</threshold><split pos="left"><feature>3</feature><threshold>1.2659885</threshold><split pos="left"><feature>4</feature><threshold>1973.0</threshold><split pos="left"><output>0.706506073474884</output></split><split pos="right"><feature>1</feature><threshold>3128063.2</threshold><split pos="left"><feature>1</feature><threshold>1725828.0</threshold><split pos="left"><feature>1</feature><threshold>431457.0</threshold><split pos="left"><feature>1</feature><threshold>323592.75</threshold><split pos="left"><output>0.09698065370321274</output></split><split pos="right"><output>-0.6560588479042053</output></split></split><split pos="right"><output>0.4855803847312927</output></split></split><split pos="right"><output>-1.3703845739364624</output></split></split><split pos="right"><output>0.8724233508110046</output></split></split></split><split pos="right"><output>0.6882226467132568</output></split></split><split pos="right"><output>-0.26735833287239075</output></split></split><split pos="right"><output>0.9993954300880432</output></split></split></split></tree><tree id="30" weight="0.1"><split><feature>3</feature><threshold>0.5425664</threshold><split pos="left"><feature>1</feature><threshold>4098841.5</threshold><split pos="left"><feature>1</feature><threshold>1725828.0</threshold><split pos="left"><feature>1</feature><threshold>1510099.5</threshold><split pos="left"><output>-0.22233222424983978</output></split><split pos="right"><output>1.0428211688995361</output></split></split><split pos="right"><output>-1.147003173828125</output></split></split><split pos="right"><output>0.6550977230072021</output></split></split><split pos="right"><feature>2</feature><threshold>3.0</threshold><split pos="left"><feature>4</feature><threshold>1979.0</threshold><split pos="left"><output>-0.4824482500553131</output></split><split pos="right"><feature>3</feature><threshold>1.0248476</threshold><split pos="left"><feature>4</feature><threshold>1980.0</threshold><split pos="left"><output>0.714560866355896</output></split><split pos="right"><feature>4</feature><threshold>2011.0</threshold><split pos="left"><output>0.16623607277870178</output></split><split pos="right"><output>-0.032294899225234985</output></split></split></split><split pos="right"><output>0.4031471908092499</output></split></split></split><split pos="right"><output>0.9081619381904602</output></split></split></split></tree><tree id="31" weight="0.1"><split><feature>3</feature><threshold>0.6631367</threshold><split pos="left"><feature>4</feature><threshold>1996.0</threshold><split pos="left"><output>0.5462589263916016</output></split><split pos="right"><feature>2</feature><threshold>48.0</threshold><split pos="left"><feature>2</feature><threshold>1.0</threshold><split pos="left"><output>-0.46505501866340637</output></split><split pos="right"><feature>1</feature><threshold>0.0</threshold><split pos="left"><output>0.827531635761261</output></split><split pos="right"><feature>3</feature><threshold>0.48228127</threshold><split pos="left"><output>0.030926750972867012</output></split><split pos="right"><output>-0.2956331968307495</output></split></split></split></split><split pos="right"><output>-0.7043383121490479</output></split></split></split><split pos="right"><feature>1</feature><threshold>107864.25</threshold><split pos="left"><feature>3</feature><threshold>2.0496962</threshold><split pos="left"><feature>4</feature><threshold>1959.0</threshold><split pos="left"><output>1.420209527015686</output></split><split pos="right"><output>0.19756285846233368</output></split></split><split pos="right"><output>-0.652431845664978</output></split></split><split pos="right"><output>0.454285204410553</output></split></split></split></tree><tree id="32" weight="0.1"><split><feature>4</feature><threshold>1999.0</threshold><split pos="left"><feature>4</feature><threshold>1998.0</threshold><split pos="left"><output>0.32579389214515686</output></split><split pos="right"><feature>3</feature><threshold>0.7234219</threshold><split pos="left"><feature>1</feature><threshold>647185.5</threshold><split pos="left"><feature>1</feature><threshold>215728.5</threshold><split pos="left"><feature>1</feature><threshold>107864.25</threshold><split pos="left"><output>-0.3345763087272644</output></split><split pos="right"><output>0.4460357129573822</output></split></split><split pos="right"><output>-0.48001956939697266</output></split></split><split pos="right"><output>0.3040112257003784</output></split></split><split pos="right"><output>-1.1139967441558838</output></split></split></split><split pos="right"><feature>4</feature><threshold>2000.0</threshold><split pos="left"><output>0.5413637757301331</output></split><split pos="right"><feature>3</feature><threshold>0.7234219</threshold><split pos="left"><output>-0.005733284167945385</output></split><split pos="right"><feature>1</feature><threshold>107864.25</threshold><split pos="left"><output>0.2220819741487503</output></split><split pos="right"><output>0.4689466655254364</output></split></split></split></split></split></tree><tree id="33" weight="0.1"><split><feature>3</feature><threshold>0.3014258</threshold><split pos="left"><feature>1</feature><threshold>647185.5</threshold><split pos="left"><output>-0.2781694531440735</output></split><split pos="right"><output>0.26125991344451904</output></split></split><split pos="right"><feature>4</feature><threshold>1984.0</threshold><split pos="left"><output>-0.41529133915901184</output></split><split pos="right"><feature>4</feature><threshold>1998.0</threshold><split pos="left"><output>0.6756324768066406</output></split><split pos="right"><feature>4</feature><threshold>1999.0</threshold><split pos="left"><output>-0.2815030813217163</output></split><split pos="right"><feature>3</feature><threshold>0.7234219</threshold><split pos="left"><output>0.008788920007646084</output></split><split pos="right"><feature>1</feature><threshold>4314570.0</threshold><split pos="left"><feature>1</feature><threshold>3235927.5</threshold><split pos="left"><feature>1</feature><threshold>107864.25</threshold><split pos="left"><output>0.2160615772008896</output></split><split pos="right"><output>0.4272041618824005</output></split></split><split pos="right"><output>1.3340067863464355</output></split></split><split pos="right"><output>-1.3097285032272339</output></split></split></split></split></split></split></split></tree><tree id="34" weight="0.1"><split><feature>3</feature><threshold>0.783707</threshold><split pos="left"><feature>4</feature><threshold>1988.0</threshold><split pos="left"><output>0.722357451915741</output></split><split pos="right"><feature>2</feature><threshold>3.0</threshold><split pos="left"><feature>1</feature><threshold>5716802.0</threshold><split pos="left"><feature>1</feature><threshold>4206706.0</threshold><split pos="left"><feature>1</feature><threshold>1617963.8</threshold><split pos="left"><feature>1</feature><threshold>1510099.5</threshold><split pos="left"><feature>1</feature><threshold>1186506.8</threshold><split pos="left"><feature>2</feature><threshold>1.0</threshold><split pos="left"><output>-0.3857782185077667</output></split><split pos="right"><output>-0.020096106454730034</output></split></split><split pos="right"><output>0.639231264591217</output></split></split><split pos="right"><output>0.7428041696548462</output></split></split><split pos="right"><output>-0.6350853443145752</output></split></split><split pos="right"><output>1.117395043373108</output></split></split><split pos="right"><output>-3.4113636016845703</output></split></split><split pos="right"><output>0.4959799349308014</output></split></split></split><split pos="right"><output>0.23482216894626617</output></split></split></tree><tree id="35" weight="0.1"><split><feature>3</feature><threshold>0.7234219</threshold><split pos="left"><feature>4</feature><threshold>1988.0</threshold><split pos="left"><output>0.6400452256202698</output></split><split pos="right"><feature>2</feature><threshold>48.0</threshold><split pos="left"><feature>2</feature><threshold>3.0</threshold><split pos="left"><feature>1</feature><threshold>6579714.0</threshold><split pos="left"><feature>1</feature><threshold>4206706.0</threshold><split pos="left"><feature>2</feature><threshold>1.0</threshold><split pos="left"><output>-0.3840165436267853</output></split><split pos="right"><feature>1</feature><threshold>0.0</threshold><split pos="left"><output>0.7853216528892517</output></split><split pos="right"><output>-0.03863272815942764</output></split></split></split><split pos="right"><output>1.1077442169189453</output></split></split><split pos="right"><output>-8.294384002685547</output></split></split><split pos="right"><output>0.6102347373962402</output></split></split><split pos="right"><output>-0.7585384249687195</output></split></split></split><split pos="right"><feature>3</feature><threshold>1.989411</threshold><split pos="left"><output>0.2576983869075775</output></split><split pos="right"><output>-0.36275744438171387</output></split></split></split></tree><tree id="36" weight="0.1"><split><feature>3</feature><threshold>1.0248476</threshold><split pos="left"><feature>2</feature><threshold>3.0</threshold><split pos="left"><feature>4</feature><threshold>1941.0</threshold><split pos="left"><output>0.981160581111908</output></split><split pos="right"><feature>4</feature><threshold>1966.0</threshold><split pos="left"><output>-1.4132667779922485</output></split><split pos="right"><feature>4</feature><threshold>1973.0</threshold><split pos="left"><output>1.3505384922027588</output></split><split pos="right"><feature>4</feature><threshold>1988.0</threshold><split pos="left"><output>0.5116006731987</output></split><split pos="right"><feature>4</feature><threshold>1994.0</threshold><split pos="left"><output>-1.179681658744812</output></split><split pos="right"><feature>4</feature><threshold>1995.0</threshold><split pos="left"><output>1.0001013278961182</output></split><split pos="right"><feature>2</feature><threshold>1.0</threshold><split pos="left"><output>-0.2843264043331146</output></split><split pos="right"><output>2.8206370188854635E-4</output></split></split></split></split></split></split></split></split><split pos="right"><output>0.5170006155967712</output></split></split><split pos="right"><output>0.28021934628486633</output></split></split></tree><tree id="37" weight="0.1"><split><feature>3</feature><threshold>1.0248476</threshold><split pos="left"><feature>2</feature><threshold>3.0</threshold><split pos="left"><feature>4</feature><threshold>1941.0</threshold><split pos="left"><output>0.9652272462844849</output></split><split pos="right"><feature>2</feature><threshold>1.0</threshold><split pos="left"><output>-0.28614920377731323</output></split><split pos="right"><feature>1</feature><threshold>0.0</threshold><split pos="left"><output>0.7636222243309021</output></split><split pos="right"><feature>4</feature><threshold>1966.0</threshold><split pos="left"><output>-1.728902816772461</output></split><split pos="right"><feature>4</feature><threshold>1988.0</threshold><split pos="left"><output>0.6329914331436157</output></split><split pos="right"><feature>1</feature><threshold>3667384.5</threshold><split pos="left"><feature>1</feature><threshold>3343791.8</threshold><split pos="left"><output>-0.01203493494540453</output></split><split pos="right"><output>-5.78442907333374</output></split></split><split pos="right"><output>0.6915030479431152</output></split></split></split></split></split></split></split><split pos="right"><output>0.495197057723999</output></split></split><split pos="right"><output>0.2634723484516144</output></split></split></tree><tree id="38" weight="0.1"><split><feature>3</feature><threshold>0.783707</threshold><split pos="left"><feature>2</feature><threshold>48.0</threshold><split pos="left"><feature>4</feature><threshold>1998.0</threshold><split pos="left"><output>0.47944825887680054</output></split><split pos="right"><feature>2</feature><threshold>4.0</threshold><split pos="left"><feature>1</feature><threshold>4098841.5</threshold><split pos="left"><feature>1</feature><threshold>3235927.5</threshold><split pos="left"><feature>1</feature><threshold>3128063.2</threshold><split pos="left"><feature>1</feature><threshold>1617963.8</threshold><split pos="left"><feature>1</feature><threshold>1510099.5</threshold><split pos="left"><output>-0.1221722960472107</output></split><split pos="right"><output>0.719251275062561</output></split></split><split pos="right"><output>-0.6213300824165344</output></split></split><split pos="right"><output>1.0784679651260376</output></split></split><split pos="right"><output>-4.2140607833862305</output></split></split><split pos="right"><output>0.6889941096305847</output></split></split><split pos="right"><output>0.5088661909103394</output></split></split></split><split pos="right"><output>-0.8496283292770386</output></split></split><split pos="right"><output>0.19351431727409363</output></split></split></tree><tree id="39" weight="0.1"><split><feature>3</feature><threshold>0.6631367</threshold><split pos="left"><feature>2</feature><threshold>48.0</threshold><split pos="left"><feature>1</feature><threshold>3128063.2</threshold><split pos="left"><feature>2</feature><threshold>2.0</threshold><split pos="left"><feature>3</feature><threshold>0.48228127</threshold><split pos="left"><feature>4</feature><threshold>2011.0</threshold><split pos="left"><feature>1</feature><threshold>862914.0</threshold><split pos="left"><output>-0.19589105248451233</output></split><split pos="right"><output>0.302969753742218</output></split></split><split pos="right"><output>0.5666266679763794</output></split></split><split pos="right"><output>-0.2160881757736206</output></split></split><split pos="right"><output>0.5046581625938416</output></split></split><split pos="right"><output>0.9580298066139221</output></split></split><split pos="right"><output>-0.7563192844390869</output></split></split><split pos="right"><feature>3</feature><threshold>1.989411</threshold><split pos="left"><feature>3</feature><threshold>1.2659885</threshold><split pos="left"><output>0.10924895852804184</output></split><split pos="right"><output>0.5794082283973694</output></split></split><split pos="right"><output>-0.4079003632068634</output></split></split></split></tree><tree id="40" weight="0.1"><split><feature>3</feature><threshold>1.0248476</threshold><split pos="left"><feature>2</feature><threshold>53.0</threshold><split pos="left"><feature>2</feature><threshold>3.0</threshold><split pos="left"><feature>2</feature><threshold>1.0</threshold><split pos="left"><output>-0.2619102895259857</output></split><split pos="right"><feature>1</feature><threshold>0.0</threshold><split pos="left"><output>0.7342648506164551</output></split><split pos="right"><feature>4</feature><threshold>1941.0</threshold><split pos="left"><output>1.0250799655914307</output></split><split pos="right"><feature>4</feature><threshold>1966.0</threshold><split pos="left"><output>-1.5947890281677246</output></split><split pos="right"><feature>4</feature><threshold>1973.0</threshold><split pos="left"><output>1.284451961517334</output></split><split pos="right"><feature>4</feature><threshold>1978.0</threshold><split pos="left"><output>-2.496461868286133</output></split><split pos="right"><output>0.0053119719959795475</output></split></split></split></split></split></split></split><split pos="right"><output>0.6316807270050049</output></split></split><split pos="right"><output>-0.6862245202064514</output></split></split><split pos="right"><output>0.22962336242198944</output></split></split></tree><tree id="41" weight="0.1"><split><feature>1</feature><threshold>107864.25</threshold><split pos="left"><feature>4</feature><threshold>1999.0</threshold><split pos="left"><feature>3</feature><threshold>1.989411</threshold><split pos="left"><output>-0.18780477344989777</output></split><split pos="right"><output>-1.4738006591796875</output></split></split><split pos="right"><feature>4</feature><threshold>2000.0</threshold><split pos="left"><output>0.566059947013855</output></split><split pos="right"><feature>3</feature><threshold>2.4114068</threshold><split pos="left"><feature>3</feature><threshold>2.2305515</threshold><split pos="left"><feature>3</feature><threshold>0.48228127</threshold><split pos="left"><output>0.40034711360931396</output></split><split pos="right"><feature>3</feature><threshold>0.6631367</threshold><split pos="left"><output>-0.27427753806114197</output></split><split pos="right"><output>0.1688709259033203</output></split></split></split><split pos="right"><output>1.4595268964767456</output></split></split><split pos="right"><output>-0.6157641410827637</output></split></split></split></split><split pos="right"><feature>3</feature><threshold>0.9042773</threshold><split pos="left"><output>0.02977997623383999</output></split><split pos="right"><output>0.5524311661720276</output></split></split></split></tree><tree id="42" weight="0.1"><split><feature>3</feature><threshold>1.0248476</threshold><split pos="left"><feature>2</feature><threshold>3.0</threshold><split pos="left"><feature>1</feature><threshold>3667384.5</threshold><split pos="left"><feature>1</feature><threshold>3343791.8</threshold><split pos="left"><feature>1</feature><threshold>3128063.2</threshold><split pos="left"><feature>4</feature><threshold>1988.0</threshold><split pos="left"><output>0.31384095549583435</output></split><split pos="right"><feature>1</feature><threshold>1725828.0</threshold><split pos="left"><feature>1</feature><threshold>1510099.5</threshold><split pos="left"><feature>4</feature><threshold>1994.0</threshold><split pos="left"><output>-0.9264149069786072</output></split><split pos="right"><output>-0.07709144055843353</output></split></split><split pos="right"><output>0.44149714708328247</output></split></split><split pos="right"><output>-0.45472174882888794</output></split></split></split><split pos="right"><output>1.053990125656128</output></split></split><split pos="right"><output>-3.3146185874938965</output></split></split><split pos="right"><output>0.6517339944839478</output></split></split><split pos="right"><output>0.4024979770183563</output></split></split><split pos="right"><output>0.2204834371805191</output></split></split></tree><tree id="43" weight="0.1"><split><feature>3</feature><threshold>0.7234219</threshold><split pos="left"><feature>2</feature><threshold>48.0</threshold><split pos="left"><feature>1</feature><threshold>3128063.2</threshold><split pos="left"><feature>1</feature><threshold>1617963.8</threshold><split pos="left"><feature>1</feature><threshold>1510099.5</threshold><split pos="left"><feature>4</feature><threshold>1988.0</threshold><split pos="left"><output>0.42720329761505127</output></split><split pos="right"><feature>2</feature><threshold>2.0</threshold><split pos="left"><feature>1</feature><threshold>215728.5</threshold><split pos="left"><feature>1</feature><threshold>107864.25</threshold><split pos="left"><output>-0.1419929414987564</output></split><split pos="right"><output>0.26275476813316345</output></split></split><split pos="right"><output>-0.24621087312698364</output></split></split><split pos="right"><output>0.4851212203502655</output></split></split></split><split pos="right"><output>0.6109076142311096</output></split></split><split pos="right"><output>-0.7397392392158508</output></split></split><split pos="right"><output>0.9329879283905029</output></split></split><split pos="right"><output>-0.6957305669784546</output></split></split><split pos="right"><output>0.1489594280719757</output></split></split></tree><tree id="44" weight="0.1"><split><feature>1</feature><threshold>107864.25</threshold><split pos="left"><feature>3</feature><threshold>2.2305515</threshold><split pos="left"><feature>3</feature><threshold>1.2659885</threshold><split pos="left"><feature>4</feature><threshold>1973.0</threshold><split pos="left"><output>0.4983457922935486</output></split><split pos="right"><feature>4</feature><threshold>1999.0</threshold><split pos="left"><output>-0.20582498610019684</output></split><split pos="right"><feature>4</feature><threshold>2000.0</threshold><split pos="left"><output>0.7900686860084534</output></split><split pos="right"><feature>3</feature><threshold>0.48228127</threshold><split pos="left"><output>0.3867890536785126</output></split><split pos="right"><output>-0.02142016775906086</output></split></split></split></split></split><split pos="right"><output>0.45390698313713074</output></split></split><split pos="right"><output>-0.6328324675559998</output></split></split><split pos="right"><feature>3</feature><threshold>0.9042773</threshold><split pos="left"><feature>3</feature><threshold>0.48228127</threshold><split pos="left"><output>0.13631196320056915</output></split><split pos="right"><output>-0.22662267088890076</output></split></split><split pos="right"><output>0.49745237827301025</output></split></split></split></tree><tree id="45" weight="0.1"><split><feature>3</feature><threshold>0.3014258</threshold><split pos="left"><feature>2</feature><threshold>6.0</threshold><split pos="left"><output>-0.14603160321712494</output></split><split pos="right"><output>-0.9061639308929443</output></split></split><split pos="right"><feature>3</feature><threshold>2.2305515</threshold><split pos="left"><feature>4</feature><threshold>1998.0</threshold><split pos="left"><output>0.46163129806518555</output></split><split pos="right"><feature>3</feature><threshold>1.2057033</threshold><split pos="left"><feature>3</feature><threshold>0.48228127</threshold><split pos="left"><output>0.37400561571121216</output></split><split pos="right"><feature>2</feature><threshold>8.0</threshold><split pos="left"><feature>2</feature><threshold>6.0</threshold><split pos="left"><feature>3</feature><threshold>0.6631367</threshold><split pos="left"><output>-0.1700819879770279</output></split><split pos="right"><output>0.04240475222468376</output></split></split><split pos="right"><output>-2.5090999603271484</output></split></split><split pos="right"><output>1.0725600719451904</output></split></split></split><split pos="right"><output>0.35171011090278625</output></split></split></split><split pos="right"><output>-0.3622598648071289</output></split></split></split></tree><tree id="46" weight="0.1"><split><feature>3</feature><threshold>0.7234219</threshold><split pos="left"><feature>2</feature><threshold>48.0</threshold><split pos="left"><feature>1</feature><threshold>3128063.2</threshold><split pos="left"><feature>1</feature><threshold>1617963.8</threshold><split pos="left"><feature>1</feature><threshold>1510099.5</threshold><split pos="left"><feature>4</feature><threshold>1988.0</threshold><split pos="left"><output>0.35062888264656067</output></split><split pos="right"><feature>2</feature><threshold>2.0</threshold><split pos="left"><feature>1</feature><threshold>215728.5</threshold><split pos="left"><feature>1</feature><threshold>107864.25</threshold><split pos="left"><output>-0.12442398816347122</output></split><split pos="right"><output>0.2015323042869568</output></split></split><split pos="right"><output>-0.22519542276859283</output></split></split><split pos="right"><output>0.44207924604415894</output></split></split></split><split pos="right"><output>0.5449835062026978</output></split></split><split pos="right"><output>-0.6498371958732605</output></split></split><split pos="right"><output>0.912501871585846</output></split></split><split pos="right"><output>-0.664485514163971</output></split></split><split pos="right"><output>0.13585062325000763</output></split></split></tree><tree id="47" weight="0.1"><split><feature>3</feature><threshold>1.0248476</threshold><split pos="left"><feature>2</feature><threshold>1.0</threshold><split pos="left"><output>-0.21842382848262787</output></split><split pos="right"><feature>1</feature><threshold>0.0</threshold><split pos="left"><output>0.7126249074935913</output></split><split pos="right"><feature>4</feature><threshold>1941.0</threshold><split pos="left"><output>1.0179169178009033</output></split><split pos="right"><feature>4</feature><threshold>1984.0</threshold><split pos="left"><output>-0.544461190700531</output></split><split pos="right"><feature>4</feature><threshold>1988.0</threshold><split pos="left"><output>1.203225016593933</output></split><split pos="right"><feature>4</feature><threshold>2012.0</threshold><split pos="left"><feature>3</feature><threshold>0.6631367</threshold><split pos="left"><feature>4</feature><threshold>2007.0</threshold><split pos="left"><output>0.05094417557120323</output></split><split pos="right"><output>-0.3381962478160858</output></split></split><split pos="right"><output>0.25581058859825134</output></split></split><split pos="right"><output>-0.10554027557373047</output></split></split></split></split></split></split></split><split pos="right"><output>0.1894838660955429</output></split></split></tree><tree id="48" weight="0.1"><split><feature>3</feature><threshold>0.7234219</threshold><split pos="left"><feature>1</feature><threshold>6579714.0</threshold><split pos="left"><feature>1</feature><threshold>4206706.0</threshold><split pos="left"><feature>4</feature><threshold>1988.0</threshold><split pos="left"><output>0.32710471749305725</output></split><split pos="right"><feature>3</feature><threshold>0.60285157</threshold><split pos="left"><feature>3</feature><threshold>0.3014258</threshold><split pos="left"><feature>1</feature><threshold>862914.0</threshold><split pos="left"><output>-0.17054130136966705</output></split><split pos="right"><output>0.2991446554660797</output></split></split><split pos="right"><output>0.13325025141239166</output></split></split><split pos="right"><output>-0.21202461421489716</output></split></split></split><split pos="right"><output>1.055625319480896</output></split></split><split pos="right"><output>-4.656795978546143</output></split></split><split pos="right"><feature>3</feature><threshold>2.2305515</threshold><split pos="left"><feature>3</feature><threshold>1.2057033</threshold><split pos="left"><output>0.07601194083690643</output></split><split pos="right"><output>0.4205905497074127</output></split></split><split pos="right"><output>-0.3825286626815796</output></split></split></split></tree><tree id="49" weight="0.1"><split><feature>4</feature><threshold>1998.0</threshold><split pos="left"><output>0.27510425448417664</output></split><split pos="right"><feature>3</feature><threshold>0.783707</threshold><split pos="left"><feature>2</feature><threshold>48.0</threshold><split pos="left"><feature>1</feature><threshold>2912334.8</threshold><split pos="left"><feature>1</feature><threshold>1617963.8</threshold><split pos="left"><feature>1</feature><threshold>1510099.5</threshold><split pos="left"><feature>2</feature><threshold>9.0</threshold><split pos="left"><feature>2</feature><threshold>1.0</threshold><split pos="left"><output>-0.25621527433395386</output></split><split pos="right"><feature>1</feature><threshold>0.0</threshold><split pos="left"><output>0.682686984539032</output></split><split pos="right"><output>-0.025146977975964546</output></split></split></split><split pos="right"><output>0.8036770820617676</output></split></split><split pos="right"><output>0.4864385426044464</output></split></split><split pos="right"><output>-0.5407941341400146</output></split></split><split pos="right"><output>0.7633631229400635</output></split></split><split pos="right"><output>-0.6291019916534424</output></split></split><split pos="right"><output>0.13891078531742096</output></split></split></split></tree><tree id="50" weight="0.1"><split><feature>1</feature><threshold>107864.25</threshold><split pos="left"><feature>3</feature><threshold>2.2305515</threshold><split pos="left"><feature>4</feature><threshold>1988.0</threshold><split pos="left"><output>0.4790785014629364</output></split><split pos="right"><feature>3</feature><threshold>1.2057033</threshold><split pos="left"><feature>4</feature><threshold>1994.0</threshold><split pos="left"><output>-0.8124887347221375</output></split><split pos="right"><feature>4</feature><threshold>1996.0</threshold><split pos="left"><output>0.42726048827171326</output></split><split pos="right"><feature>4</feature><threshold>1999.0</threshold><split pos="left"><output>-0.20268188416957855</output></split><split pos="right"><feature>4</feature><threshold>2000.0</threshold><split pos="left"><output>0.6018372774124146</output></split><split pos="right"><output>0.02533392794430256</output></split></split></split></split></split><split pos="right"><output>0.3566266894340515</output></split></split></split><split pos="right"><output>-0.6003326773643494</output></split></split><split pos="right"><feature>3</feature><threshold>0.9042773</threshold><split pos="left"><output>0.004819540772587061</output></split><split pos="right"><output>0.46580788493156433</output></split></split></split></tree><tree id="51" weight="0.1"><split><feature>4</feature><threshold>1985.0</threshold><split pos="left"><output>-0.44357356429100037</output></split><split pos="right"><feature>4</feature><threshold>1986.0</threshold><split pos="left"><output>1.258080244064331</output></split><split pos="right"><feature>3</feature><threshold>1.2057033</threshold><split pos="left"><feature>2</feature><threshold>1.0</threshold><split pos="left"><feature>4</feature><threshold>2011.0</threshold><split pos="left"><output>-0.34250548481941223</output></split><split pos="right"><output>0.18088248372077942</output></split></split><split pos="right"><feature>4</feature><threshold>2012.0</threshold><split pos="left"><feature>3</feature><threshold>0.42199612</threshold><split pos="left"><feature>4</feature><threshold>2006.0</threshold><split pos="left"><output>0.02131785824894905</output></split><split pos="right"><output>-1.1538374423980713</output></split></split><split pos="right"><output>0.24455663561820984</output></split></split><split pos="right"><feature>3</feature><threshold>0.48228127</threshold><split pos="left"><output>0.4854084551334381</output></split><split pos="right"><output>-0.2285935878753662</output></split></split></split></split><split pos="right"><output>0.28772443532943726</output></split></split></split></split></tree><tree id="52" weight="0.1"><split><feature>4</feature><threshold>1998.0</threshold><split pos="left"><output>0.3401567339897156</output></split><split pos="right"><feature>2</feature><threshold>53.0</threshold><split pos="left"><feature>3</feature><threshold>0.783707</threshold><split pos="left"><feature>1</feature><threshold>215728.5</threshold><split pos="left"><feature>1</feature><threshold>107864.25</threshold><split pos="left"><feature>3</feature><threshold>0.3014258</threshold><split pos="left"><output>-0.20455585420131683</output></split><split pos="right"><feature>2</feature><threshold>4.0</threshold><split pos="left"><feature>3</feature><threshold>0.36171097</threshold><split pos="left"><output>0.364764928817749</output></split><split pos="right"><feature>4</feature><threshold>2014.0</threshold><split pos="left"><output>0.060159213840961456</output></split><split pos="right"><output>-0.1254929155111313</output></split></split></split><split pos="right"><output>0.8372958898544312</output></split></split></split><split pos="right"><output>0.16185708343982697</output></split></split><split pos="right"><output>-0.17170989513397217</output></split></split><split pos="right"><output>0.12177788466215134</output></split></split><split pos="right"><output>-0.6304037570953369</output></split></split></split></tree><tree id="53" weight="0.1"><split><feature>4</feature><threshold>1998.0</threshold><split pos="left"><output>0.2976721525192261</output></split><split pos="right"><feature>3</feature><threshold>0.783707</threshold><split pos="left"><feature>3</feature><threshold>0.60285157</threshold><split pos="left"><feature>3</feature><threshold>0.3014258</threshold><split pos="left"><feature>1</feature><threshold>1617963.8</threshold><split pos="left"><output>-0.12610282003879547</output></split><split pos="right"><output>-0.43993282318115234</output></split></split><split pos="right"><feature>4</feature><threshold>2005.0</threshold><split pos="left"><output>0.6467278599739075</output></split><split pos="right"><output>-0.09156843274831772</output></split></split></split><split pos="right"><output>-0.13544631004333496</output></split></split><split pos="right"><feature>4</feature><threshold>1999.0</threshold><split pos="left"><output>-0.844539999961853</output></split><split pos="right"><feature>1</feature><threshold>4314570.0</threshold><split pos="left"><feature>1</feature><threshold>2373013.5</threshold><split pos="left"><output>0.16086405515670776</output></split><split pos="right"><output>1.306977391242981</output></split></split><split pos="right"><output>-1.8225162029266357</output></split></split></split></split></split></tree><tree id="54" weight="0.1"><split><feature>3</feature><threshold>0.783707</threshold><split pos="left"><feature>4</feature><threshold>1988.0</threshold><split pos="left"><output>0.5766933560371399</output></split><split pos="right"><feature>3</feature><threshold>0.48228127</threshold><split pos="left"><feature>4</feature><threshold>2011.0</threshold><split pos="left"><feature>1</feature><threshold>107864.25</threshold><split pos="left"><output>-0.1887572556734085</output></split><split pos="right"><output>0.13134612143039703</output></split></split><split pos="right"><output>0.39919960498809814</output></split></split><split pos="right"><feature>2</feature><threshold>3.0</threshold><split pos="left"><feature>1</feature><threshold>107864.25</threshold><split pos="left"><feature>4</feature><threshold>2014.0</threshold><split pos="left"><output>0.07308100163936615</output></split><split pos="right"><output>-0.3388581871986389</output></split></split><split pos="right"><output>-0.489195853471756</output></split></split><split pos="right"><output>0.8330169916152954</output></split></split></split></split><split pos="right"><feature>1</feature><threshold>107864.25</threshold><split pos="left"><output>0.05824049934744835</output></split><split pos="right"><output>0.35067254304885864</output></split></split></split></tree><tree id="55" weight="0.1"><split><feature>2</feature><threshold>53.0</threshold><split pos="left"><feature>3</feature><threshold>0.6631367</threshold><split pos="left"><feature>4</feature><threshold>1986.0</threshold><split pos="left"><output>0.5827293992042542</output></split><split pos="right"><feature>4</feature><threshold>2015.0</threshold><split pos="left"><feature>3</feature><threshold>0.60285157</threshold><split pos="left"><feature>4</feature><threshold>1995.0</threshold><split pos="left"><output>-1.2455017566680908</output></split><split pos="right"><feature>4</feature><threshold>1996.0</threshold><split pos="left"><output>1.0785739421844482</output></split><split pos="right"><feature>4</feature><threshold>2005.0</threshold><split pos="left"><output>-0.061975546181201935</output></split><split pos="right"><output>-0.1899031698703766</output></split></split></split></split><split pos="right"><output>-0.41652199625968933</output></split></split><split pos="right"><output>0.19807715713977814</output></split></split></split><split pos="right"><feature>3</feature><threshold>1.989411</threshold><split pos="left"><output>0.14401434361934662</output></split><split pos="right"><output>-0.2577177882194519</output></split></split></split><split pos="right"><output>-0.6235544681549072</output></split></split></tree><tree id="56" weight="0.1"><split><feature>3</feature><threshold>1.2057033</threshold><split pos="left"><feature>4</feature><threshold>1988.0</threshold><split pos="left"><output>0.34759509563446045</output></split><split pos="right"><feature>4</feature><threshold>1994.0</threshold><split pos="left"><output>-0.6099883317947388</output></split><split pos="right"><feature>4</feature><threshold>1998.0</threshold><split pos="left"><output>0.5036489963531494</output></split><split pos="right"><feature>3</feature><threshold>0.783707</threshold><split pos="left"><feature>1</feature><threshold>215728.5</threshold><split pos="left"><feature>2</feature><threshold>31.0</threshold><split pos="left"><feature>1</feature><threshold>107864.25</threshold><split pos="left"><feature>1</feature><threshold>0.0</threshold><split pos="left"><output>-0.2163088321685791</output></split><split pos="right"><output>-0.04314163327217102</output></split></split><split pos="right"><output>0.15806643664836884</output></split></split><split pos="right"><output>-1.1598654985427856</output></split></split><split pos="right"><output>-0.1660841554403305</output></split></split><split pos="right"><output>0.07226355373859406</output></split></split></split></split></split><split pos="right"><output>0.2115614414215088</output></split></split></tree><tree id="57" weight="0.1"><split><feature>3</feature><threshold>1.2057033</threshold><split pos="left"><feature>4</feature><threshold>1988.0</threshold><split pos="left"><output>0.3204632103443146</output></split><split pos="right"><feature>4</feature><threshold>1994.0</threshold><split pos="left"><output>-0.582706093788147</output></split><split pos="right"><feature>4</feature><threshold>1998.0</threshold><split pos="left"><output>0.4668204188346863</output></split><split pos="right"><feature>2</feature><threshold>1.0</threshold><split pos="left"><output>-0.18087108433246613</output></split><split pos="right"><feature>1</feature><threshold>0.0</threshold><split pos="left"><output>0.6236957907676697</output></split><split pos="right"><feature>3</feature><threshold>0.6631367</threshold><split pos="left"><feature>3</feature><threshold>0.48228127</threshold><split pos="left"><feature>4</feature><threshold>2015.0</threshold><split pos="left"><output>0.03246955946087837</output></split><split pos="right"><output>0.7994197010993958</output></split></split><split pos="right"><output>-0.38825735449790955</output></split></split><split pos="right"><output>0.11092269420623779</output></split></split></split></split></split></split></split><split pos="right"><output>0.20347976684570312</output></split></split></tree><tree id="58" weight="0.1"><split><feature>2</feature><threshold>266.0</threshold><split pos="left"><feature>4</feature><threshold>1985.0</threshold><split pos="left"><output>-0.47447219491004944</output></split><split pos="right"><feature>4</feature><threshold>1986.0</threshold><split pos="left"><output>1.1582423448562622</output></split><split pos="right"><feature>3</feature><threshold>1.2057033</threshold><split pos="left"><feature>2</feature><threshold>1.0</threshold><split pos="left"><output>-0.19159439206123352</output></split><split pos="right"><feature>1</feature><threshold>0.0</threshold><split pos="left"><output>0.5904896259307861</output></split><split pos="right"><feature>3</feature><threshold>0.6631367</threshold><split pos="left"><feature>4</feature><threshold>2015.0</threshold><split pos="left"><feature>4</feature><threshold>2006.0</threshold><split pos="left"><output>0.0386725477874279</output></split><split pos="right"><output>-0.3031091094017029</output></split></split><split pos="right"><output>0.44171762466430664</output></split></split><split pos="right"><output>0.10055145621299744</output></split></split></split></split><split pos="right"><output>0.2650088965892792</output></split></split></split></split><split pos="right"><output>-0.5671454071998596</output></split></split></tree><tree id="59" weight="0.1"><split><feature>4</feature><threshold>1984.0</threshold><split pos="left"><output>-0.4641982614994049</output></split><split pos="right"><feature>4</feature><threshold>1986.0</threshold><split pos="left"><output>0.9972088932991028</output></split><split pos="right"><feature>3</feature><threshold>1.2057033</threshold><split pos="left"><feature>2</feature><threshold>1.0</threshold><split pos="left"><feature>4</feature><threshold>2011.0</threshold><split pos="left"><output>-0.29823195934295654</output></split><split pos="right"><output>0.14807821810245514</output></split></split><split pos="right"><feature>1</feature><threshold>0.0</threshold><split pos="left"><output>0.5574650168418884</output></split><split pos="right"><feature>4</feature><threshold>2012.0</threshold><split pos="left"><feature>3</feature><threshold>0.6631367</threshold><split pos="left"><feature>1</feature><threshold>1617963.8</threshold><split pos="left"><output>0.0286434106528759</output></split><split pos="right"><output>-0.3749752938747406</output></split></split><split pos="right"><output>0.20689256489276886</output></split></split><split pos="right"><output>-0.08900845795869827</output></split></split></split></split><split pos="right"><output>0.25079023838043213</output></split></split></split></split></tree><tree id="60" weight="0.1"><split><feature>1</feature><threshold>3128063.2</threshold><split pos="left"><feature>4</feature><threshold>1998.0</threshold><split pos="left"><output>0.2354227751493454</output></split><split pos="right"><feature>4</feature><threshold>2015.0</threshold><split pos="left"><feature>4</feature><threshold>2014.0</threshold><split pos="left"><feature>3</feature><threshold>2.4114068</threshold><split pos="left"><feature>3</feature><threshold>1.3262737</threshold><split pos="left"><feature>1</feature><threshold>1725828.0</threshold><split pos="left"><feature>4</feature><threshold>2012.0</threshold><split pos="left"><feature>1</feature><threshold>1510099.5</threshold><split pos="left"><output>-0.013440626673400402</output></split><split pos="right"><output>1.0073881149291992</output></split></split><split pos="right"><output>-0.2105223685503006</output></split></split><split pos="right"><output>-0.5785878300666809</output></split></split><split pos="right"><output>0.46937641501426697</output></split></split><split pos="right"><output>-0.8910261392593384</output></split></split><split pos="right"><output>0.19038191437721252</output></split></split><split pos="right"><output>-0.18463608622550964</output></split></split></split><split pos="right"><output>0.9511666893959045</output></split></split></tree><tree id="61" weight="0.1"><split><feature>3</feature><threshold>1.2057033</threshold><split pos="left"><feature>4</feature><threshold>1988.0</threshold><split pos="left"><output>0.25243285298347473</output></split><split pos="right"><feature>4</feature><threshold>1994.0</threshold><split pos="left"><output>-0.557350218296051</output></split><split pos="right"><feature>4</feature><threshold>1998.0</threshold><split pos="left"><output>0.4039077162742615</output></split><split pos="right"><feature>1</feature><threshold>1078642.5</threshold><split pos="left"><feature>1</feature><threshold>862914.0</threshold><split pos="left"><feature>3</feature><threshold>0.783707</threshold><split pos="left"><feature>1</feature><threshold>215728.5</threshold><split pos="left"><feature>2</feature><threshold>31.0</threshold><split pos="left"><output>-0.05247107148170471</output></split><split pos="right"><output>-1.0049630403518677</output></split></split><split pos="right"><output>-0.25782155990600586</output></split></split><split pos="right"><output>0.0799853503704071</output></split></split><split pos="right"><output>0.5184670686721802</output></split></split><split pos="right"><output>-0.20935127139091492</output></split></split></split></split></split><split pos="right"><output>0.18067620694637299</output></split></split></tree><tree id="62" weight="0.1"><split><feature>2</feature><threshold>266.0</threshold><split pos="left"><feature>4</feature><threshold>1985.0</threshold><split pos="left"><output>-0.4369388222694397</output></split><split pos="right"><feature>4</feature><threshold>1986.0</threshold><split pos="left"><output>1.082664966583252</output></split><split pos="right"><feature>4</feature><threshold>1998.0</threshold><split pos="left"><output>0.41960084438323975</output></split><split pos="right"><feature>2</feature><threshold>1.0</threshold><split pos="left"><output>-0.1688069999217987</output></split><split pos="right"><feature>3</feature><threshold>2.7731173</threshold><split pos="left"><feature>3</feature><threshold>2.7128322</threshold><split pos="left"><feature>3</feature><threshold>2.6525471</threshold><split pos="left"><feature>3</feature><threshold>0.6631367</threshold><split pos="left"><output>-0.003996033221483231</output></split><split pos="right"><output>0.13899949193000793</output></split></split><split pos="right"><output>-1.6288219690322876</output></split></split><split pos="right"><output>-1.8277264833450317</output></split></split><split pos="right"><output>0.881281316280365</output></split></split></split></split></split></split><split pos="right"><output>-0.5575800538063049</output></split></split></tree><tree id="63" weight="0.1"><split><feature>4</feature><threshold>2015.0</threshold><split pos="left"><feature>3</feature><threshold>0.9042773</threshold><split pos="left"><feature>4</feature><threshold>1984.0</threshold><split pos="left"><output>-0.4820593595504761</output></split><split pos="right"><feature>4</feature><threshold>1986.0</threshold><split pos="left"><output>1.0361361503601074</output></split><split pos="right"><feature>1</feature><threshold>1617963.8</threshold><split pos="left"><feature>1</feature><threshold>1510099.5</threshold><split pos="left"><feature>1</feature><threshold>0.0</threshold><split pos="left"><output>-0.2648029923439026</output></split><split pos="right"><feature>3</feature><threshold>0.6631367</threshold><split pos="left"><feature>3</feature><threshold>0.48228127</threshold><split pos="left"><output>0.05465793237090111</output></split><split pos="right"><output>-0.26129820942878723</output></split></split><split pos="right"><output>0.13461019098758698</output></split></split></split><split pos="right"><output>0.44632863998413086</output></split></split><split pos="right"><output>-0.4868975281715393</output></split></split></split></split><split pos="right"><output>0.184362530708313</output></split></split><split pos="right"><output>-0.23833805322647095</output></split></split></tree><tree id="64" weight="0.1"><split><feature>3</feature><threshold>1.0248476</threshold><split pos="left"><feature>4</feature><threshold>1984.0</threshold><split pos="left"><output>-0.41286996006965637</output></split><split pos="right"><feature>4</feature><threshold>1986.0</threshold><split pos="left"><output>1.0139036178588867</output></split><split pos="right"><feature>4</feature><threshold>1996.0</threshold><split pos="left"><output>-0.48343029618263245</output></split><split pos="right"><feature>1</feature><threshold>1833692.2</threshold><split pos="left"><feature>1</feature><threshold>431457.0</threshold><split pos="left"><feature>1</feature><threshold>323592.75</threshold><split pos="left"><feature>2</feature><threshold>1.0</threshold><split pos="left"><output>-0.14461888372898102</output></split><split pos="right"><feature>4</feature><threshold>2011.0</threshold><split pos="left"><output>0.0832444280385971</output></split><split pos="right"><output>-0.09846354275941849</output></split></split></split><split pos="right"><output>-0.7697466611862183</output></split></split><split pos="right"><output>0.14725825190544128</output></split></split><split pos="right"><output>-0.46435311436653137</output></split></split></split></split></split><split pos="right"><output>0.15743541717529297</output></split></split></tree><tree id="65" weight="0.1"><split><feature>2</feature><threshold>266.0</threshold><split pos="left"><feature>1</feature><threshold>3128063.2</threshold><split pos="left"><feature>4</feature><threshold>1959.0</threshold><split pos="left"><output>1.0958384275436401</output></split><split pos="right"><feature>4</feature><threshold>1985.0</threshold><split pos="left"><output>-0.48627832531929016</output></split><split pos="right"><feature>4</feature><threshold>1986.0</threshold><split pos="left"><output>0.9887624979019165</output></split><split pos="right"><feature>3</feature><threshold>1.2057033</threshold><split pos="left"><feature>1</feature><threshold>1078642.5</threshold><split pos="left"><feature>1</feature><threshold>862914.0</threshold><split pos="left"><feature>2</feature><threshold>8.0</threshold><split pos="left"><output>-0.04414944350719452</output></split><split pos="right"><output>0.49245935678482056</output></split></split><split pos="right"><output>0.461664080619812</output></split></split><split pos="right"><output>-0.47616034746170044</output></split></split><split pos="right"><output>0.23917923867702484</output></split></split></split></split></split><split pos="right"><output>0.9328713417053223</output></split></split><split pos="right"><output>-0.5277500748634338</output></split></split></tree><tree id="66" weight="0.1"><split><feature>1</feature><threshold>4314570.0</threshold><split pos="left"><feature>1</feature><threshold>4206706.0</threshold><split pos="left"><feature>4</feature><threshold>2015.0</threshold><split pos="left"><feature>3</feature><threshold>1.0248476</threshold><split pos="left"><feature>1</feature><threshold>1725828.0</threshold><split pos="left"><feature>1</feature><threshold>1186506.8</threshold><split pos="left"><feature>1</feature><threshold>1078642.5</threshold><split pos="left"><feature>1</feature><threshold>862914.0</threshold><split pos="left"><feature>2</feature><threshold>2.0</threshold><split pos="left"><output>-0.03030260279774666</output></split><split pos="right"><output>0.340522825717926</output></split></split><split pos="right"><output>0.427667498588562</output></split></split><split pos="right"><output>-1.171865463256836</output></split></split><split pos="right"><output>0.2911836802959442</output></split></split><split pos="right"><output>-0.7938744425773621</output></split></split><split pos="right"><output>0.21596530079841614</output></split></split><split pos="right"><output>-0.20140451192855835</output></split></split><split pos="right"><output>1.046929955482483</output></split></split><split pos="right"><output>-2.598134756088257</output></split></split></tree><tree id="67" weight="0.1"><split><feature>1</feature><threshold>3128063.2</threshold><split pos="left"><feature>4</feature><threshold>1959.0</threshold><split pos="left"><output>1.0056101083755493</output></split><split pos="right"><feature>4</feature><threshold>1984.0</threshold><split pos="left"><output>-0.46877437829971313</output></split><split pos="right"><feature>4</feature><threshold>1998.0</threshold><split pos="left"><output>0.4284416437149048</output></split><split pos="right"><feature>4</feature><threshold>2015.0</threshold><split pos="left"><feature>3</feature><threshold>0.783707</threshold><split pos="left"><feature>1</feature><threshold>2265149.2</threshold><split pos="left"><feature>4</feature><threshold>2012.0</threshold><split pos="left"><feature>4</feature><threshold>2010.0</threshold><split pos="left"><output>-0.05223244056105614</output></split><split pos="right"><output>0.37627971172332764</output></split></split><split pos="right"><output>-0.14664295315742493</output></split></split><split pos="right"><output>-1.4783196449279785</output></split></split><split pos="right"><output>0.11228936910629272</output></split></split><split pos="right"><output>-0.19340823590755463</output></split></split></split></split></split><split pos="right"><output>0.9242106676101685</output></split></split></tree><tree id="68" weight="0.1"><split><feature>4</feature><threshold>1959.0</threshold><split pos="left"><output>0.97369384765625</output></split><split pos="right"><feature>4</feature><threshold>1984.0</threshold><split pos="left"><output>-0.4225400686264038</output></split><split pos="right"><feature>4</feature><threshold>1998.0</threshold><split pos="left"><output>0.41699638962745667</output></split><split pos="right"><feature>3</feature><threshold>3.0142577</threshold><split pos="left"><feature>3</feature><threshold>2.7731173</threshold><split pos="left"><feature>4</feature><threshold>2015.0</threshold><split pos="left"><feature>3</feature><threshold>0.783707</threshold><split pos="left"><feature>1</feature><threshold>215728.5</threshold><split pos="left"><feature>2</feature><threshold>31.0</threshold><split pos="left"><output>-0.02052399329841137</output></split><split pos="right"><output>-1.0378886461257935</output></split></split><split pos="right"><output>-0.19675028324127197</output></split></split><split pos="right"><output>0.11991310864686966</output></split></split><split pos="right"><output>-0.14899276196956635</output></split></split><split pos="right"><output>0.5519257187843323</output></split></split><split pos="right"><output>-0.8809903264045715</output></split></split></split></split></split></tree><tree id="69" weight="0.1"><split><feature>4</feature><threshold>1998.0</threshold><split pos="left"><output>0.2148503065109253</output></split><split pos="right"><feature>3</feature><threshold>3.0142577</threshold><split pos="left"><feature>3</feature><threshold>2.7731173</threshold><split pos="left"><feature>1</feature><threshold>3667384.5</threshold><split pos="left"><feature>1</feature><threshold>323592.75</threshold><split pos="left"><feature>1</feature><threshold>107864.25</threshold><split pos="left"><feature>3</feature><threshold>2.4114068</threshold><split pos="left"><feature>3</feature><threshold>2.1702664</threshold><split pos="left"><feature>4</feature><threshold>2014.0</threshold><split pos="left"><output>-0.011173956096172333</output></split><split pos="right"><output>-0.10014992952346802</output></split></split><split pos="right"><output>1.3783729076385498</output></split></split><split pos="right"><output>-0.7137396335601807</output></split></split><split pos="right"><output>0.1459394097328186</output></split></split><split pos="right"><output>-0.14519666135311127</output></split></split><split pos="right"><output>0.708340585231781</output></split></split><split pos="right"><output>0.5246977210044861</output></split></split><split pos="right"><output>-0.8758369088172913</output></split></split></split></tree><tree id="70" weight="0.1"><split><feature>4</feature><threshold>1937.0</threshold><split pos="left"><output>1.453741192817688</output></split><split pos="right"><feature>3</feature><threshold>1.989411</threshold><split pos="left"><feature>4</feature><threshold>1998.0</threshold><split pos="left"><output>0.2662582993507385</output></split><split pos="right"><feature>3</feature><threshold>1.3865589</threshold><split pos="left"><feature>3</feature><threshold>1.3262737</threshold><split pos="left"><feature>4</feature><threshold>2000.0</threshold><split pos="left"><feature>3</feature><threshold>0.7234219</threshold><split pos="left"><feature>3</feature><threshold>0.5425664</threshold><split pos="left"><output>-0.057918716222047806</output></split><split pos="right"><output>0.5465391278266907</output></split></split><split pos="right"><output>-0.9195854663848877</output></split></split><split pos="right"><feature>4</feature><threshold>2011.0</threshold><split pos="left"><output>0.240566223859787</output></split><split pos="right"><output>-0.028279026970267296</output></split></split></split><split pos="right"><output>-0.6047958135604858</output></split></split><split pos="right"><output>0.37440335750579834</output></split></split></split><split pos="right"><output>-0.3189677894115448</output></split></split></split></tree><tree id="71" weight="0.1"><split><feature>3</feature><threshold>0.783707</threshold><split pos="left"><feature>4</feature><threshold>1986.0</threshold><split pos="left"><output>0.28572502732276917</output></split><split pos="right"><feature>3</feature><threshold>0.48228127</threshold><split pos="left"><feature>4</feature><threshold>2011.0</threshold><split pos="left"><feature>4</feature><threshold>1988.0</threshold><split pos="left"><output>-2.509493350982666</output></split><split pos="right"><output>-0.06821105629205704</output></split></split><split pos="right"><output>0.4582638740539551</output></split></split><split pos="right"><feature>2</feature><threshold>3.0</threshold><split pos="left"><feature>1</feature><threshold>107864.25</threshold><split pos="left"><feature>4</feature><threshold>2014.0</threshold><split pos="left"><output>0.06002312898635864</output></split><split pos="right"><output>-0.3241790235042572</output></split></split><split pos="right"><output>-0.36443719267845154</output></split></split><split pos="right"><output>0.6695607304573059</output></split></split></split></split><split pos="right"><feature>3</feature><threshold>1.989411</threshold><split pos="left"><output>0.14249278604984283</output></split><split pos="right"><output>-0.32050251960754395</output></split></split></split></tree><tree id="72" weight="0.1"><split><feature>2</feature><threshold>266.0</threshold><split pos="left"><feature>3</feature><threshold>0.3014258</threshold><split pos="left"><output>-0.08896557986736298</output></split><split pos="right"><feature>3</feature><threshold>2.2305515</threshold><split pos="left"><feature>3</feature><threshold>1.2659885</threshold><split pos="left"><feature>3</feature><threshold>0.48228127</threshold><split pos="left"><output>0.22110381722450256</output></split><split pos="right"><feature>4</feature><threshold>1973.0</threshold><split pos="left"><output>0.3598329722881317</output></split><split pos="right"><feature>2</feature><threshold>3.0</threshold><split pos="left"><feature>4</feature><threshold>2012.0</threshold><split pos="left"><feature>4</feature><threshold>2002.0</threshold><split pos="left"><output>-0.16347138583660126</output></split><split pos="right"><output>0.17447784543037415</output></split></split><split pos="right"><output>-0.08446373790502548</output></split></split><split pos="right"><output>0.5291138887405396</output></split></split></split></split><split pos="right"><output>0.3398517072200775</output></split></split><split pos="right"><output>-0.25496894121170044</output></split></split></split><split pos="right"><output>-0.5139678120613098</output></split></split></tree><tree id="73" weight="0.1"><split><feature>1</feature><threshold>4314570.0</threshold><split pos="left"><feature>1</feature><threshold>4206706.0</threshold><split pos="left"><feature>3</feature><threshold>1.2057033</threshold><split pos="left"><feature>4</feature><threshold>1973.0</threshold><split pos="left"><output>0.3718610405921936</output></split><split pos="right"><feature>1</feature><threshold>1833692.2</threshold><split pos="left"><feature>1</feature><threshold>431457.0</threshold><split pos="left"><feature>1</feature><threshold>323592.75</threshold><split pos="left"><feature>1</feature><threshold>107864.25</threshold><split pos="left"><feature>4</feature><threshold>1985.0</threshold><split pos="left"><output>-0.6864945292472839</output></split><split pos="right"><output>-0.04119722545146942</output></split></split><split pos="right"><output>0.0902838408946991</output></split></split><split pos="right"><output>-0.6412756443023682</output></split></split><split pos="right"><output>0.18494313955307007</output></split></split><split pos="right"><output>-0.4846893846988678</output></split></split></split><split pos="right"><output>0.1731208860874176</output></split></split><split pos="right"><output>1.0344576835632324</output></split></split><split pos="right"><output>-1.7194753885269165</output></split></split></tree><tree id="74" weight="0.1"><split><feature>2</feature><threshold>266.0</threshold><split pos="left"><feature>3</feature><threshold>1.989411</threshold><split pos="left"><feature>4</feature><threshold>1998.0</threshold><split pos="left"><output>0.2601377069950104</output></split><split pos="right"><feature>3</feature><threshold>1.3865589</threshold><split pos="left"><feature>3</feature><threshold>1.3262737</threshold><split pos="left"><feature>2</feature><threshold>1.0</threshold><split pos="left"><output>-0.13432329893112183</output></split><split pos="right"><feature>4</feature><threshold>2012.0</threshold><split pos="left"><feature>3</feature><threshold>1.0851328</threshold><split pos="left"><feature>1</feature><threshold>1725828.0</threshold><split pos="left"><output>0.09632246941328049</output></split><split pos="right"><output>-0.7794361710548401</output></split></split><split pos="right"><output>0.6360148191452026</output></split></split><split pos="right"><output>-0.0969466120004654</output></split></split></split><split pos="right"><output>-0.6110411882400513</output></split></split><split pos="right"><output>0.34368881583213806</output></split></split></split><split pos="right"><output>-0.31380173563957214</output></split></split><split pos="right"><output>-0.48256057500839233</output></split></split></tree><tree id="75" weight="0.1"><split><feature>1</feature><threshold>2373013.5</threshold><split pos="left"><feature>1</feature><threshold>2265149.2</threshold><split pos="left"><feature>4</feature><threshold>1937.0</threshold><split pos="left"><output>1.3697035312652588</output></split><split pos="right"><feature>3</feature><threshold>0.783707</threshold><split pos="left"><feature>4</feature><threshold>1988.0</threshold><split pos="left"><output>0.24652700126171112</output></split><split pos="right"><feature>3</feature><threshold>0.48228127</threshold><split pos="left"><feature>4</feature><threshold>2011.0</threshold><split pos="left"><output>-0.06871446967124939</output></split><split pos="right"><output>0.3689035177230835</output></split></split><split pos="right"><feature>1</feature><threshold>107864.25</threshold><split pos="left"><output>-0.052949607372283936</output></split><split pos="right"><output>-0.3202040195465088</output></split></split></split></split><split pos="right"><feature>3</feature><threshold>1.989411</threshold><split pos="left"><output>0.11475659906864166</output></split><split pos="right"><output>-0.24339786171913147</output></split></split></split></split><split pos="right"><output>-1.2917271852493286</output></split></split><split pos="right"><output>0.7549617290496826</output></split></split></tree><tree id="76" weight="0.1"><split><feature>2</feature><threshold>266.0</threshold><split 