model=<ensemble><tree id="1" weight="0.1"><split><feature>4</feature><threshold>1999.0</threshold><split pos="left"><feature>2</feature><threshold>1.0</threshold><split pos="left"><output>-0.7943837642669678</output></split><split pos="right"><feature>1</feature><threshold>107864.25</threshold><split pos="left"><feature>3</feature><threshold>0.5425664</threshold><split pos="left"><feature>4</feature><threshold>1988.0</threshold><split pos="left"><feature>4</feature><threshold>1984.0</threshold><split pos="left"><feature>2</feature><threshold>9.0</threshold><split pos="left"><feature>2</feature><threshold>2.0</threshold><split pos="left"><output>-0.18224436044692993</output></split><split pos="right"><output>-0.9649981260299683</output></split></split><split pos="right"><output>1.1909157037734985</output></split></split><split pos="right"><output>1.9519758224487305</output></split></split><split pos="right"><output>-1.3103744983673096</output></split></split><split pos="right"><output>0.7095171809196472</output></split></split><split pos="right"><output>0.7800015807151794</output></split></split></split><split pos="right"><feature>1</feature><threshold>107864.25</threshold><split pos="left"><output>0.7737139463424683</output></split><split pos="right"><output>1.5604472160339355</output></split></split></split></tree><tree id="2" weight="0.1"><split><feature>1</feature><threshold>107864.25</threshold><split pos="left"><feature>4</feature><threshold>1999.0</threshold><split pos="left"><output>-1.058899998664856</output></split><split pos="right"><feature>4</feature><threshold>2006.0</threshold><split pos="left"><output>0.42167624831199646</output></split><split pos="right"><feature>3</feature><threshold>0.60285157</threshold><split pos="left"><output>0.4163917005062103</output></split><split pos="right"><output>1.0944457054138184</output></split></split></split></split><split pos="right"><feature>4</feature><threshold>1992.0</threshold><split pos="left"><output>0.81966233253479</output></split><split pos="right"><feature>2</feature><threshold>8.0</threshold><split pos="left"><feature>3</feature><threshold>2.531977</threshold><split pos="left"><feature>3</feature><threshold>1.145418</threshold><split pos="left"><feature>4</feature><threshold>1996.0</threshold><split pos="left"><output>1.9141658544540405</output></split><split pos="right"><output>1.4349507093429565</output></split></split><split pos="right"><output>1.4307990074157715</output></split></split><split pos="right"><output>1.7661114931106567</output></split></split><split pos="right"><output>1.7775765657424927</output></split></split></split></split></tree><tree id="3" weight="0.1"><split><feature>4</feature><threshold>1999.0</threshold><split pos="left"><output>-0.7728139162063599</output></split><split pos="right"><feature>1</feature><threshold>107864.25</threshold><split pos="left"><feature>3</feature><threshold>0.60285157</threshold><split pos="left"><output>0.31851130723953247</output></split><split pos="right"><feature>3</feature><threshold>0.9645625</threshold><split pos="left"><feature>1</feature><threshold>0.0</threshold><split pos="left"><feature>2</feature><threshold>1.0</threshold><split pos="left"><output>1.0967144966125488</output></split><split pos="right"><output>1.7134737968444824</output></split></split><split pos="right"><output>1.0035128593444824</output></split></split><split pos="right"><output>0.869044303894043</output></split></split></split><split pos="right"><feature>3</feature><threshold>2.7731173</threshold><split pos="left"><feature>2</feature><threshold>8.0</threshold><split pos="left"><feature>3</feature><threshold>1.4468441</threshold><split pos="left"><output>1.302670955657959</output></split><split pos="right"><output>1.178497552871704</output></split></split><split pos="right"><output>1.59221351146698</output></split></split><split pos="right"><output>1.620214819908142</output></split></split></split></split></tree><tree id="4" weight="0.1"><split><feature>4</feature><threshold>1999.0</threshold><split pos="left"><output>-0.7161308526992798</output></split><split pos="right"><feature>1</feature><threshold>107864.25</threshold><split pos="left"><feature>3</feature><threshold>0.60285157</threshold><split pos="left"><output>0.2913571298122406</output></split><split pos="right"><feature>3</feature><threshold>0.9645625</threshold><split pos="left"><feature>1</feature><threshold>0.0</threshold><split pos="left"><feature>2</feature><threshold>1.0</threshold><split pos="left"><output>0.8532108664512634</output></split><split pos="right"><output>1.5565574169158936</output></split></split><split pos="right"><output>0.912555992603302</output></split></split><split pos="right"><output>0.7805254459381104</output></split></split></split><split pos="right"><feature>3</feature><threshold>2.7128322</threshold><split pos="left"><feature>2</feature><threshold>8.0</threshold><split pos="left"><feature>3</feature><threshold>1.4468441</threshold><split pos="left"><output>1.1776657104492188</output></split><split pos="right"><output>1.0506259202957153</output></split></split><split pos="right"><output>1.466995120048523</output></split></split><split pos="right"><output>1.4945149421691895</output></split></split></split></split></tree><tree id="5" weight="0.1"><split><feature>4</feature><threshold>1999.0</threshold><split pos="left"><output>-0.6375182867050171</output></split><split pos="right"><feature>1</feature><threshold>107864.25</threshold><split pos="left"><feature>3</feature><threshold>0.60285157</threshold><split pos="left"><output>0.22611291706562042</output></split><split pos="right"><feature>3</feature><threshold>0.9645625</threshold><split pos="left"><feature>1</feature><threshold>0.0</threshold><split pos="left"><output>0.8869106769561768</output></split><split pos="right"><output>0.8177325129508972</output></split></split><split pos="right"><output>0.6967382431030273</output></split></split></split><split pos="right"><feature>3</feature><threshold>2.7128322</threshold><split pos="left"><feature>2</feature><threshold>8.0</threshold><split pos="left"><feature>3</feature><threshold>1.4468441</threshold><split pos="left"><feature>4</feature><threshold>2015.0</threshold><split pos="left"><output>1.140406608581543</output></split><split pos="right"><output>0.4526635408401489</output></split></split><split pos="right"><output>0.9548543691635132</output></split></split><split pos="right"><output>1.3737088441848755</output></split></split><split pos="right"><output>1.4018205404281616</output></split></split></split></split></tree><tree id="6" weight="0.1"><split><feature>4</feature><threshold>1999.0</threshold><split pos="left"><feature>1</feature><threshold>107864.25</threshold><split pos="left"><output>-0.7317600846290588</output></split><split pos="right"><output>0.7360853552818298</output></split></split><split pos="right"><feature>1</feature><threshold>107864.25</threshold><split pos="left"><feature>3</feature><threshold>0.60285157</threshold><split pos="left"><output>0.1825844943523407</output></split><split pos="right"><feature>3</feature><threshold>0.9645625</threshold><split pos="left"><feature>1</feature><threshold>0.0</threshold><split pos="left"><output>0.7981460094451904</output></split><split pos="right"><output>0.7380683422088623</output></split></split><split pos="right"><output>0.627905011177063</output></split></split></split><split pos="right"><feature>3</feature><threshold>2.531977</threshold><split pos="left"><feature>2</feature><threshold>8.0</threshold><split pos="left"><feature>3</feature><threshold>1.4468441</threshold><split pos="left"><output>0.9870238900184631</output></split><split pos="right"><output>0.7922982573509216</output></split></split><split pos="right"><output>1.302756667137146</output></split></split><split pos="right"><output>1.3009943962097168</output></split></split></split></split></tree><tree id="7" weight="0.1"><split><feature>3</feature><threshold>0.60285157</threshold><split pos="left"><feature>1</feature><threshold>107864.25</threshold><split pos="left"><feature>2</feature><threshold>1.0</threshold><split pos="left"><output>-0.8124750852584839</output></split><split pos="right"><output>-0.3398553729057312</output></split></split><split pos="right"><output>0.5470350384712219</output></split></split><split pos="right"><feature>1</feature><threshold>107864.25</threshold><split pos="left"><feature>4</feature><threshold>2006.0</threshold><split pos="left"><output>0.3184051513671875</output></split><split pos="right"><feature>3</feature><threshold>0.9645625</threshold><split pos="left"><feature>4</feature><threshold>2011.0</threshold><split pos="left"><output>0.9500049948692322</output></split><split pos="right"><output>0.6117658615112305</output></split></split><split pos="right"><output>0.6045395731925964</output></split></split></split><split pos="right"><feature>3</feature><threshold>2.531977</threshold><split pos="left"><feature>2</feature><threshold>8.0</threshold><split pos="left"><output>1.0061661005020142</output></split><split pos="right"><output>1.2925344705581665</output></split></split><split pos="right"><output>1.2810009717941284</output></split></split></split></split></tree><tree id="8" weight="0.1"><split><feature>3</feature><threshold>0.60285157</threshold><split pos="left"><feature>1</feature><threshold>107864.25</threshold><split pos="left"><feature>4</feature><threshold>1999.0</threshold><split pos="left"><output>-0.6726479530334473</output></split><split pos="right"><output>0.19946005940437317</output></split></split><split pos="right"><output>0.483010858297348</output></split></split><split pos="right"><feature>1</feature><threshold>107864.25</threshold><split pos="left"><feature>3</feature><threshold>2.2305515</threshold><split pos="left"><feature>2</feature><threshold>1.0</threshold><split pos="left"><output>0.37734606862068176</output></split><split pos="right"><feature>1</feature><threshold>0.0</threshold><split pos="left"><output>1.2759405374526978</output></split><split pos="right"><output>0.7512553930282593</output></split></split></split><split pos="right"><output>-0.1868111789226532</output></split></split><split pos="right"><feature>3</feature><threshold>2.531977</threshold><split pos="left"><feature>2</feature><threshold>8.0</threshold><split pos="left"><output>0.9338330030441284</output></split><split pos="right"><output>1.2521336078643799</output></split></split><split pos="right"><output>1.2349798679351807</output></split></split></split></split></tree><tree id="9" weight="0.1"><split><feature>3</feature><threshold>0.60285157</threshold><split pos="left"><feature>1</feature><threshold>107864.25</threshold><split pos="left"><feature>2</feature><threshold>1.0</threshold><split pos="left"><output>-0.7222366333007812</output></split><split pos="right"><output>-0.2475171536207199</output></split></split><split pos="right"><output>0.4384891986846924</output></split></split><split pos="right"><feature>1</feature><threshold>107864.25</threshold><split pos="left"><feature>3</feature><threshold>2.2305515</threshold><split pos="left"><feature>2</feature><threshold>1.0</threshold><split pos="left"><output>0.34809520840644836</output></split><split pos="right"><feature>1</feature><threshold>0.0</threshold><split pos="left"><output>1.2059673070907593</output></split><split pos="right"><output>0.669892430305481</output></split></split></split><split pos="right"><output>-0.2640521228313446</output></split></split><split pos="right"><feature>3</feature><threshold>2.7731173</threshold><split pos="left"><feature>2</feature><threshold>8.0</threshold><split pos="left"><output>0.8791897892951965</output></split><split pos="right"><output>1.2198011875152588</output></split></split><split pos="right"><output>1.2363018989562988</output></split></split></split></split></tree><tree id="10" weight="0.1"><split><feature>3</feature><threshold>0.60285157</threshold><split pos="left"><feature>1</feature><threshold>107864.25</threshold><split pos="left"><feature>4</feature><threshold>1999.0</threshold><split pos="left"><output>-0.5654499530792236</output></split><split pos="right"><output>0.1735709309577942</output></split></split><split pos="right"><output>0.36193937063217163</output></split></split><split pos="right"><feature>1</feature><threshold>107864.25</threshold><split pos="left"><feature>3</feature><threshold>2.2305515</threshold><split pos="left"><feature>2</feature><threshold>1.0</threshold><split pos="left"><output>0.31180962920188904</output></split><split pos="right"><feature>1</feature><threshold>0.0</threshold><split pos="left"><output>1.1674299240112305</output></split><split pos="right"><feature>4</feature><threshold>2000.0</threshold><split pos="left"><output>1.2033966779708862</output></split><split pos="right"><output>0.527123749256134</output></split></split></split></split><split pos="right"><output>-0.2534646987915039</output></split></split><split pos="right"><feature>3</feature><threshold>2.7128322</threshold><split pos="left"><output>0.8652184009552002</output></split><split pos="right"><output>1.1996402740478516</output></split></split></split></split></tree><tree id="11" weight="0.1"><split><feature>3</feature><threshold>0.6631367</threshold><split pos="left"><feature>1</feature><threshold>107864.25</threshold><split pos="left"><feature>2</feature><threshold>1.0</threshold><split pos="left"><output>-0.6233189105987549</output></split><split pos="right"><feature>1</feature><threshold>0.0</threshold><split pos="left"><output>0.9960100650787354</output></split><split pos="right"><output>-0.19362778961658478</output></split></split></split><split pos="right"><feature>1</feature><threshold>3128063.2</threshold><split pos="left"><output>0.27225422859191895</output></split><split pos="right"><output>1.2733806371688843</output></split></split></split><split pos="right"><feature>1</feature><threshold>107864.25</threshold><split pos="left"><feature>3</feature><threshold>2.2305515</threshold><split pos="left"><feature>4</feature><threshold>2014.0</threshold><split pos="left"><output>0.4762294888496399</output></split><split pos="right"><output>0.6678034067153931</output></split></split><split pos="right"><output>-0.2550579309463501</output></split></split><split pos="right"><feature>3</feature><threshold>2.7128322</threshold><split pos="left"><output>0.8264054656028748</output></split><split pos="right"><output>1.166636347770691</output></split></split></split></split></tree><tree id="12" weight="0.1"><split><feature>3</feature><threshold>0.6631367</threshold><split pos="left"><feature>1</feature><threshold>107864.25</threshold><split pos="left"><feature>2</feature><threshold>1.0</threshold><split pos="left"><output>-0.5714634656906128</output></split><split pos="right"><feature>1</feature><threshold>0.0</threshold><split pos="left"><output>0.8122856020927429</output></split><split pos="right"><output>-0.1670020967721939</output></split></split></split><split pos="right"><feature>1</feature><threshold>3128063.2</threshold><split pos="left"><output>0.22515761852264404</output></split><split pos="right"><output>1.1502156257629395</output></split></split></split><split pos="right"><feature>1</feature><threshold>107864.25</threshold><split pos="left"><feature>3</feature><threshold>2.2305515</threshold><split pos="left"><feature>4</feature><threshold>2014.0</threshold><split pos="left"><output>0.41573789715766907</output></split><split pos="right"><output>0.6122574806213379</output></split></split><split pos="right"><output>-0.24044957756996155</output></split></split><split pos="right"><feature>2</feature><threshold>8.0</threshold><split pos="left"><output>0.7675439715385437</output></split><split pos="right"><output>1.1676398515701294</output></split></split></split></split></tree><tree id="13" weight="0.1"><split><feature>3</feature><threshold>0.6631367</threshold><split pos="left"><feature>2</feature><threshold>1.0</threshold><split pos="left"><output>-0.5213358998298645</output></split><split pos="right"><feature>1</feature><threshold>0.0</threshold><split pos="left"><output>0.7583457231521606</output></split><split pos="right"><feature>1</feature><threshold>647185.5</threshold><split pos="left"><feature>2</feature><threshold>9.0</threshold><split pos="left"><feature>4</feature><threshold>2015.0</threshold><split pos="left"><feature>1</feature><threshold>107864.25</threshold><split pos="left"><output>-0.18783649802207947</output></split><split pos="right"><output>0.10481627285480499</output></split></split><split pos="right"><output>0.6026267409324646</output></split></split><split pos="right"><output>0.9862164258956909</output></split></split><split pos="right"><output>0.5122215747833252</output></split></split></split></split><split pos="right"><feature>1</feature><threshold>107864.25</threshold><split pos="left"><feature>3</feature><threshold>2.2305515</threshold><split pos="left"><output>0.4581622779369354</output></split><split pos="right"><output>-0.24032899737358093</output></split></split><split pos="right"><output>0.7613133788108826</output></split></split></split></tree><tree id="14" weight="0.1"><split><feature>3</feature><threshold>0.6631367</threshold><split pos="left"><feature>2</feature><threshold>1.0</threshold><split pos="left"><output>-0.47442376613616943</output></split><split pos="right"><feature>1</feature><threshold>0.0</threshold><split pos="left"><output>0.7145479321479797</output></split><split pos="right"><feature>1</feature><threshold>647185.5</threshold><split pos="left"><feature>2</feature><threshold>9.0</threshold><split pos="left"><feature>4</feature><threshold>2015.0</threshold><split pos="left"><feature>3</feature><threshold>0.48228127</threshold><split pos="left"><output>-0.11314889788627625</output></split><split pos="right"><output>-0.22991326451301575</output></split></split><split pos="right"><output>0.5417938828468323</output></split></split><split pos="right"><output>0.9513593316078186</output></split></split><split pos="right"><output>0.41427960991859436</output></split></split></split></split><split pos="right"><feature>1</feature><threshold>107864.25</threshold><split pos="left"><feature>3</feature><threshold>2.2305515</threshold><split pos="left"><output>0.42549386620521545</output></split><split pos="right"><output>-0.22297945618629456</output></split></split><split pos="right"><output>0.7204750180244446</output></split></split></split></tree><tree id="15" weight="0.1"><split><feature>3</feature><threshold>0.6631367</threshold><split pos="left"><feature>2</feature><threshold>1.0</threshold><split pos="left"><output>-0.4338822364807129</output></split><split pos="right"><feature>1</feature><threshold>0.0</threshold><split pos="left"><output>0.6636807322502136</output></split><split pos="right"><feature>1</feature><threshold>3128063.2</threshold><split pos="left"><feature>1</feature><threshold>2049420.8</threshold><split pos="left"><feature>1</feature><threshold>862914.0</threshold><split pos="left"><feature>2</feature><threshold>9.0</threshold><split pos="left"><feature>4</feature><threshold>2015.0</threshold><split pos="left"><output>-0.11726132035255432</output></split><split pos="right"><output>0.39276543259620667</output></split></split><split pos="right"><output>0.8743484616279602</output></split></split><split pos="right"><output>0.5609102249145508</output></split></split><split pos="right"><output>-1.8001927137374878</output></split></split><split pos="right"><output>0.893910825252533</output></split></split></split></split><split pos="right"><feature>1</feature><threshold>107864.25</threshold><split pos="left"><output>0.33539342880249023</output></split><split pos="right"><output>0.6843992471694946</output></split></split></split></tree><tree id="16" weight="0.1"><split><feature>3</feature><threshold>0.6631367</threshold><split pos="left"><feature>1</feature><threshold>647185.5</threshold><split pos="left"><feature>2</feature><threshold>1.0</threshold><split pos="left"><output>-0.40125328302383423</output></split><split pos="right"><feature>1</feature><threshold>0.0</threshold><split pos="left"><output>0.6171450018882751</output></split><split pos="right"><feature>2</feature><threshold>9.0</threshold><split pos="left"><feature>3</feature><threshold>0.48228127</threshold><split pos="left"><output>-0.07702804356813431</output></split><split pos="right"><output>-0.30707138776779175</output></split></split><split pos="right"><output>0.8062702417373657</output></split></split></split></split><split pos="right"><output>0.4434593915939331</output></split></split><split pos="right"><feature>1</feature><threshold>107864.25</threshold><split pos="left"><feature>3</feature><threshold>2.2305515</threshold><split pos="left"><feature>4</feature><threshold>1998.0</threshold><split pos="left"><output>1.135089635848999</output></split><split pos="right"><output>0.3182149827480316</output></split></split><split pos="right"><output>-0.2516532242298126</output></split></split><split pos="right"><output>0.6476748585700989</output></split></split></split></tree><tree id="17" weight="0.1"><split><feature>3</feature><threshold>0.6631367</threshold><split pos="left"><feature>1</feature><threshold>647185.5</threshold><split pos="left"><feature>2</feature><threshold>9.0</threshold><split pos="left"><feature>2</feature><threshold>1.0</threshold><split pos="left"><output>-0.37003791332244873</output></split><split pos="right"><feature>1</feature><threshold>0.0</threshold><split pos="left"><output>0.5718748569488525</output></split><split pos="right"><feature>3</feature><threshold>0.48228127</threshold><split pos="left"><output>-0.08194613456726074</output></split><split pos="right"><output>-0.29279232025146484</output></split></split></split></split><split pos="right"><output>0.7417859435081482</output></split></split><split pos="right"><output>0.4097044765949249</output></split></split><split pos="right"><feature>1</feature><threshold>107864.25</threshold><split pos="left"><feature>4</feature><threshold>1941.0</threshold><split pos="left"><output>1.4122682809829712</output></split><split pos="right"><feature>3</feature><threshold>2.2305515</threshold><split pos="left"><output>0.3504704535007477</output></split><split pos="right"><output>-0.251491904258728</output></split></split></split><split pos="right"><output>0.6137691736221313</output></split></split></split></tree><tree id="18" weight="0.1"><split><feature>3</feature><threshold>0.6631367</threshold><split pos="left"><feature>1</feature><threshold>2912334.8</threshold><split pos="left"><feature>1</feature><threshold>1725828.0</threshold><split pos="left"><feature>1</feature><threshold>862914.0</threshold><split pos="left"><feature>2</feature><threshold>0.0</threshold><split pos="left"><output>-0.4131428003311157</output></split><split pos="right"><feature>2</feature><threshold>9.0</threshold><split pos="left"><feature>3</feature><threshold>0.3014258</threshold><split pos="left"><output>-0.1849556416273117</output></split><split pos="right"><output>0.06496819108724594</output></split></split><split pos="right"><output>0.6819525957107544</output></split></split></split><split pos="right"><output>0.5844451189041138</output></split></split><split pos="right"><output>-1.5231871604919434</output></split></split><split pos="right"><output>0.8030041456222534</output></split></split><split pos="right"><feature>1</feature><threshold>107864.25</threshold><split pos="left"><feature>4</feature><threshold>1941.0</threshold><split pos="left"><output>1.3458287715911865</output></split><split pos="right"><output>0.27035215497016907</output></split></split><split pos="right"><output>0.578586220741272</output></split></split></split></tree><tree id="19" weight="0.1"><split><feature>3</feature><threshold>0.6631367</threshold><split pos="left"><feature>1</feature><threshold>862914.0</threshold><split pos="left"><feature>2</feature><threshold>0.0</threshold><split pos="left"><output>-0.396454393863678</output></split><split pos="right"><feature>2</feature><threshold>9.0</threshold><split pos="left"><feature>3</feature><threshold>0.48228127</threshold><split pos="left"><feature>4</feature><threshold>2010.0</threshold><split pos="left"><output>-0.16823016107082367</output></split><split pos="right"><output>0.5662121772766113</output></split></split><split pos="right"><output>-0.26371943950653076</output></split></split><split pos="right"><output>0.627326250076294</output></split></split></split><split pos="right"><output>0.40878239274024963</output></split></split><split pos="right"><feature>1</feature><threshold>107864.25</threshold><split pos="left"><feature>4</feature><threshold>1941.0</threshold><split pos="left"><output>1.2929710149765015</output></split><split pos="right"><feature>3</feature><threshold>2.2305515</threshold><split pos="left"><output>0.31476980447769165</output></split><split pos="right"><output>-0.27273687720298767</output></split></split></split><split pos="right"><output>0.5441495180130005</output></split></split></split></tree><tree id="20" weight="0.1"><split><feature>3</feature><threshold>0.6631367</threshold><split pos="left"><feature>1</feature><threshold>647185.5</threshold><split pos="left"><feature>2</feature><threshold>0.0</threshold><split pos="left"><output>-0.3727302849292755</output></split><split pos="right"><feature>3</feature><threshold>0.48228127</threshold><split pos="left"><feature>4</feature><threshold>2010.0</threshold><split pos="left"><feature>2</feature><threshold>9.0</threshold><split pos="left"><output>-0.16366663575172424</output></split><split pos="right"><output>0.547764003276825</output></split></split><split pos="right"><output>0.55213463306427</output></split></split><split pos="right"><output>-0.24334529042243958</output></split></split></split><split pos="right"><output>0.3086414635181427</output></split></split><split pos="right"><feature>4</feature><threshold>1941.0</threshold><split pos="left"><output>1.248069167137146</output></split><split pos="right"><feature>2</feature><threshold>1.0</threshold><split pos="left"><output>0.015974879264831543</output></split><split pos="right"><feature>4</feature><threshold>2015.0</threshold><split pos="left"><output>0.485912561416626</output></split><split pos="right"><output>-0.05944241210818291</output></split></split></split></split></split></tree><tree id="21" weight="0.1"><split><feature>3</feature><threshold>0.7234219</threshold><split pos="left"><feature>1</feature><threshold>107864.25</threshold><split pos="left"><feature>1</feature><threshold>0.0</threshold><split pos="left"><output>-0.34928134083747864</output></split><split pos="right"><feature>3</feature><threshold>0.6631367</threshold><split pos="left"><feature>3</feature><threshold>0.48228127</threshold><split pos="left"><output>-0.11697425693273544</output></split><split pos="right"><output>-0.31609436869621277</output></split></split><split pos="right"><output>0.22327156364917755</output></split></split></split><split pos="right"><output>0.15063682198524475</output></split></split><split pos="right"><feature>1</feature><threshold>755049.75</threshold><split pos="left"><feature>1</feature><threshold>647185.5</threshold><split pos="left"><feature>1</feature><threshold>323592.75</threshold><split pos="left"><feature>2</feature><threshold>7.0</threshold><split pos="left"><output>0.2671762704849243</output></split><split pos="right"><output>1.0240368843078613</output></split></split><split pos="right"><output>0.7990591526031494</output></split></split><split pos="right"><output>-3.8295865058898926</output></split></split><split pos="right"><output>0.8219519853591919</output></split></split></split></tree><tree id="22" weight="0.1"><split><feature>3</feature><threshold>0.7234219</threshold><split pos="left"><feature>1</feature><threshold>2912334.8</threshold><split pos="left"><feature>1</feature><threshold>107864.25</threshold><split pos="left"><feature>3</feature><threshold>0.3014258</threshold><split pos="left"><output>-0.2402186095714569</output></split><split pos="right"><output>0.020319100469350815</output></split></split><split pos="right"><output>0.09183809161186218</output></split></split><split pos="right"><output>0.7714043259620667</output></split></split><split pos="right"><feature>2</feature><threshold>7.0</threshold><split pos="left"><feature>1</feature><threshold>755049.75</threshold><split pos="left"><feature>1</feature><threshold>647185.5</threshold><split pos="left"><feature>1</feature><threshold>323592.75</threshold><split pos="left"><feature>3</feature><threshold>2.2305515</threshold><split pos="left"><output>0.30104929208755493</output></split><split pos="right"><output>-0.15007781982421875</output></split></split><split pos="right"><output>0.8075169324874878</output></split></split><split pos="right"><output>-3.330754041671753</output></split></split><split pos="right"><output>0.7019837498664856</output></split></split><split pos="right"><output>1.047654151916504</output></split></split></split></tree><tree id="23" weight="0.1"><split><feature>3</feature><threshold>0.7234219</threshold><split pos="left"><feature>1</feature><threshold>2912334.8</threshold><split pos="left"><feature>2</feature><threshold>1.0</threshold><split pos="left"><output>-0.25813040137290955</output></split><split pos="right"><feature>1</feature><threshold>0.0</threshold><split pos="left"><output>0.5296106934547424</output></split><split pos="right"><feature>1</feature><threshold>1725828.0</threshold><split pos="left"><feature>1</feature><threshold>1186506.8</threshold><split pos="left"><feature>2</feature><threshold>48.0</threshold><split pos="left"><feature>2</feature><threshold>9.0</threshold><split pos="left"><feature>2</feature><threshold>8.0</threshold><split pos="left"><output>-0.05656314268708229</output></split><split pos="right"><output>-1.7807831764221191</output></split></split><split pos="right"><output>0.7991275787353516</output></split></split><split pos="right"><output>-1.2744617462158203</output></split></split><split pos="right"><output>0.6218952536582947</output></split></split><split pos="right"><output>-1.0693230628967285</output></split></split></split></split><split pos="right"><output>0.741589367389679</output></split></split><split pos="right"><output>0.31342220306396484</output></split></split></tree><tree id="24" weight="0.1"><split><feature>3</feature><threshold>0.7234219</threshold><split pos="left"><feature>1</feature><threshold>2912334.8</threshold><split pos="left"><feature>1</feature><threshold>1725828.0</threshold><split pos="left"><feature>1</feature><threshold>1186506.8</threshold><split pos="left"><feature>1</feature><threshold>0.0</threshold><split pos="left"><output>-0.29774099588394165</output></split><split pos="right"><feature>2</feature><threshold>48.0</threshold><split pos="left"><feature>2</feature><threshold>3.0</threshold><split pos="left"><feature>3</feature><threshold>0.48228127</threshold><split pos="left"><feature>4</feature><threshold>2010.0</threshold><split pos="left"><output>-0.11324524879455566</output></split><split pos="right"><output>0.3843541741371155</output></split></split><split pos="right"><output>-0.18732167780399323</output></split></split><split pos="right"><output>0.7445111274719238</output></split></split><split pos="right"><output>-1.1050419807434082</output></split></split></split><split pos="right"><output>0.5603543519973755</output></split></split><split pos="right"><output>-1.0037826299667358</output></split></split><split pos="right"><output>0.6995439529418945</output></split></split><split pos="right"><output>0.2912852168083191</output></split></split></tree><tree id="25" weight="0.1"><split><feature>3</feature><threshold>0.6631367</threshold><split pos="left"><feature>1</feature><threshold>862914.0</threshold><split pos="left"><feature>3</feature><threshold>0.48228127</threshold><split pos="left"><feature>4</feature><threshold>2010.0</threshold><split pos="left"><feature>1</feature><threshold>107864.25</threshold><split pos="left"><output>-0.19425395131111145</output></split><split pos="right"><output>0.10042499005794525</output></split></split><split pos="right"><output>0.34533241391181946</output></split></split><split pos="right"><output>-0.24150338768959045</output></split></split><split pos="right"><output>0.305977463722229</output></split></split><split pos="right"><feature>4</feature><threshold>1959.0</threshold><split pos="left"><output>1.31349778175354</output></split><split pos="right"><feature>2</feature><threshold>1.0</threshold><split pos="left"><output>-0.09457212686538696</output></split><split pos="right"><feature>4</feature><threshold>1974.0</threshold><split pos="left"><output>-1.0835217237472534</output></split><split pos="right"><feature>1</feature><threshold>215728.5</threshold><split pos="left"><output>0.28889966011047363</output></split><split pos="right"><output>0.5692967772483826</output></split></split></split></split></split></split></tree><tree id="26" weight="0.1"><split><feature>3</feature><threshold>0.6631367</threshold><split pos="left"><feature>1</feature><threshold>2912334.8</threshold><split pos="left"><feature>3</feature><threshold>0.48228127</threshold><split pos="left"><feature>4</feature><threshold>2010.0</threshold><split pos="left"><feature>1</feature><threshold>647185.5</threshold><split pos="left"><feature>1</feature><threshold>0.0</threshold><split pos="left"><output>-0.3064171075820923</output></split><split pos="right"><output>-0.11127761006355286</output></split></split><split pos="right"><output>0.4210677742958069</output></split></split><split pos="right"><output>0.29984810948371887</output></split></split><split pos="right"><output>-0.2409357875585556</output></split></split><split pos="right"><output>0.6136580109596252</output></split></split><split pos="right"><feature>4</feature><threshold>1959.0</threshold><split pos="left"><output>1.2084054946899414</output></split><split pos="right"><feature>2</feature><threshold>1.0</threshold><split pos="left"><output>-0.09616261720657349</output></split><split pos="right"><feature>1</feature><threshold>215728.5</threshold><split pos="left"><output>0.25340309739112854</output></split><split pos="right"><output>0.5428135395050049</output></split></split></split></split></split></tree><tree id="27" weight="0.1"><split><feature>3</feature><threshold>0.783707</threshold><split pos="left"><feature>2</feature><threshold>3.0</threshold><split pos="left"><feature>1</feature><threshold>5716802.0</threshold><split pos="left"><feature>1</feature><threshold>4206706.0</threshold><split pos="left"><feature>1</feature><threshold>970778.25</threshold><split pos="left"><feature>2</feature><threshold>1.0</threshold><split pos="left"><output>-0.19555136561393738</output></split><split pos="right"><feature>1</feature><threshold>0.0</threshold><split pos="left"><output>0.5189252495765686</output></split><split pos="right"><feature>4</feature><threshold>2012.0</threshold><split pos="left"><feature>3</feature><threshold>0.6631367</threshold><split pos="left"><output>-0.06559189409017563</output></split><split pos="right"><output>0.4189641773700714</output></split></split><split pos="right"><output>-0.17116162180900574</output></split></split></split></split><split pos="right"><output>0.29020580649375916</output></split></split><split pos="right"><output>1.2206339836120605</output></split></split><split pos="right"><output>-3.8193342685699463</output></split></split><split pos="right"><output>0.4503720700740814</output></split></split><split pos="right"><output>0.2804494798183441</output></split></split></tree><tree id="28" weight="0.1"><split><feature>3</feature><threshold>0.783707</threshold><split pos="left"><feature>2</feature><threshold>48.0</threshold><split pos="left"><feature>2</feature><threshold>8.0</threshold><split pos="left"><feature>1</feature><threshold>970778.25</threshold><split pos="left"><feature>2</feature><threshold>6.0</threshold><split pos="left"><feature>2</feature><threshold>5.0</threshold><split pos="left"><feature>1</feature><threshold>0.0</threshold><split pos="left"><output>-0.21836720407009125</output></split><split pos="right"><feature>4</feature><threshold>2012.0</threshold><split pos="left"><feature>4</feature><threshold>2010.0</threshold><split pos="left"><output>-0.06968093663454056</output></split><split pos="right"><output>0.3583887815475464</output></split></split><split pos="right"><output>-0.1777670681476593</output></split></split></split><split pos="right"><output>1.6112643480300903</output></split></split><split pos="right"><output>-3.8828725814819336</output></split></split><split pos="right"><output>0.22709286212921143</output></split></split><split pos="right"><output>0.6713870763778687</output></split></split><split pos="right"><output>-1.1539876461029053</output></split></split><split pos="right"><output>0.26439350843429565</output></split></split></tree><tree id="29" weight="0.1"><split><feature>3</feature><threshold>0.783707</threshold><split pos="left"><feature>2</feature><threshold>3.0</threshold><split pos="left"><feature>1</feature><threshold>970778.25</threshold><split pos="left"><feature>3</feature><threshold>0.48228127</threshold><split pos="left"><feature>4</feature><threshold>2010.0</threshold><split pos="left"><feature>1</feature><threshold>862914.0</threshold><split pos="left"><feature>1</feature><threshold>647185.5</threshold><split pos="left"><feature>1</feature><threshold>323592.75</threshold><split pos="left"><feature>1</feature><threshold>107864.25</threshold><split pos="left"><output>-0.15010185539722443</output></split><split pos="right"><output>0.199503555893898</output></split></split><split pos="right"><output>-0.52621990442276</output></split></split><split pos="right"><output>0.4798934757709503</output></split></split><split pos="right"><output>0.8535669445991516</output></split></split><split pos="right"><output>0.29194194078445435</output></split></split><split pos="right"><output>-0.14073173701763153</output></split></split><split pos="right"><output>0.21339061856269836</output></split></split><split pos="right"><output>0.3987104296684265</output></split></split><split pos="right"><output>0.24398887157440186</output></split></split></tree><tree id="30" weight="0.1"><split><feature>3</feature><threshold>0.783707</threshold><split pos="left"><feature>2</feature><threshold>31.0</threshold><split pos="left"><feature>2</feature><threshold>9.0</threshold><split pos="left"><feature>4</feature><threshold>2012.0</threshold><split pos="left"><feature>4</feature><threshold>2010.0</threshold><split pos="left"><feature>1</feature><threshold>647185.5</threshold><split pos="left"><feature>2</feature><threshold>8.0</threshold><split pos="left"><feature>2</feature><threshold>3.0</threshold><split pos="left"><feature>4</feature><threshold>2009.0</threshold><split pos="left"><output>-0.1004243940114975</output></split><split pos="right"><output>-0.5428020358085632</output></split></split><split pos="right"><output>0.8059720396995544</output></split></split><split pos="right"><output>-3.1607840061187744</output></split></split><split pos="right"><output>0.22227226197719574</output></split></split><split pos="right"><output>0.34135809540748596</output></split></split><split pos="right"><output>-0.14279533922672272</output></split></split><split pos="right"><output>0.8547290563583374</output></split></split><split pos="right"><output>-0.9412410855293274</output></split></split><split pos="right"><output>0.23396192491054535</output></split></split></tree><tree id="31" weight="0.1"><split><feature>3</feature><threshold>0.783707</threshold><split pos="left"><feature>2</feature><threshold>3.0</threshold><split pos="left"><feature>1</feature><threshold>1617963.8</threshold><split pos="left"><feature>1</feature><threshold>1510099.5</threshold><split pos="left"><feature>1</feature><threshold>970778.25</threshold><split pos="left"><feature>3</feature><threshold>0.48228127</threshold><split pos="left"><feature>4</feature><threshold>2010.0</threshold><split pos="left"><feature>1</feature><threshold>862914.0</threshold><split pos="left"><feature>1</feature><threshold>647185.5</threshold><split pos="left"><output>-0.1059960201382637</output></split><split pos="right"><output>0.41401076316833496</output></split></split><split pos="right"><output>0.7929316759109497</output></split></split><split pos="right"><output>0.24909399449825287</output></split></split><split pos="right"><output>-0.14209122955799103</output></split></split><split pos="right"><output>0.40724191069602966</output></split></split><split pos="right"><output>0.8424324989318848</output></split></split><split pos="right"><output>-0.4500581622123718</output></split></split><split pos="right"><output>0.43516647815704346</output></split></split><split pos="right"><output>0.2204378992319107</output></split></split></tree><tree id="32" weight="0.1"><split><feature>3</feature><threshold>0.60285157</threshold><split pos="left"><feature>3</feature><threshold>0.48228127</threshold><split pos="left"><feature>4</feature><threshold>2010.0</threshold><split pos="left"><feature>1</feature><threshold>1617963.8</threshold><split pos="left"><feature>1</feature><threshold>1510099.5</threshold><split pos="left"><feature>1</feature><threshold>647185.5</threshold><split pos="left"><feature>2</feature><threshold>31.0</threshold><split pos="left"><feature>2</feature><threshold>9.0</threshold><split pos="left"><output>-0.09731419384479523</output></split><split pos="right"><output>0.9006352424621582</output></split></split><split pos="right"><output>-0.8775814771652222</output></split></split><split pos="right"><output>0.3548632562160492</output></split></split><split pos="right"><output>1.3372042179107666</output></split></split><split pos="right"><output>-0.7080086469650269</output></split></split><split pos="right"><output>0.1935017704963684</output></split></split><split pos="right"><output>-0.33015334606170654</output></split></split><split pos="right"><feature>2</feature><threshold>1.0</threshold><split pos="left"><output>-0.14681844413280487</output></split><split pos="right"><output>0.26181456446647644</output></split></split></split></tree><tree id="33" weight="0.1"><split><feature>3</feature><threshold>0.9042773</threshold><split pos="left"><feature>2</feature><threshold>3.0</threshold><split pos="left"><feature>1</feature><threshold>5716802.0</threshold><split pos="left"><feature>1</feature><threshold>3128063.2</threshold><split pos="left"><feature>1</feature><threshold>1725828.0</threshold><split pos="left"><feature>1</feature><threshold>970778.25</threshold><split pos="left"><feature>1</feature><threshold>755049.75</threshold><split pos="left"><feature>1</feature><threshold>0.0</threshold><split pos="left"><output>-0.16297398507595062</output></split><split pos="right"><feature>4</feature><threshold>2005.0</threshold><split pos="left"><output>-0.016140682622790337</output></split><split pos="right"><output>-0.10634831339120865</output></split></split></split><split pos="right"><output>-0.4918425977230072</output></split></split><split pos="right"><output>0.3886719346046448</output></split></split><split pos="right"><output>-0.7828256487846375</output></split></split><split pos="right"><output>0.7983523011207581</output></split></split><split pos="right"><output>-1.9417608976364136</output></split></split><split pos="right"><output>0.5792492628097534</output></split></split><split pos="right"><output>0.24310080707073212</output></split></split></tree><tree id="34" weight="0.1"><split><feature>3</feature><threshold>0.8439922</threshold><split pos="left"><feature>2</feature><threshold>7.0</threshold><split pos="left"><feature>4</feature><threshold>2015.0</threshold><split pos="left"><feature>3</feature><threshold>0.60285157</threshold><split pos="left"><feature>3</feature><threshold>0.48228127</threshold><split pos="left"><feature>4</feature><threshold>2010.0</threshold><split pos="left"><feature>1</feature><threshold>647185.5</threshold><split pos="left"><feature>1</feature><threshold>215728.5</threshold><split pos="left"><feature>1</feature><threshold>107864.25</threshold><split pos="left"><output>-0.10695139318704605</output></split><split pos="right"><output>0.3259947896003723</output></split></split><split pos="right"><output>-0.2807963192462921</output></split></split><split pos="right"><output>0.24080242216587067</output></split></split><split pos="right"><output>0.2055387943983078</output></split></split><split pos="right"><output>-0.3462752103805542</output></split></split><split pos="right"><output>0.12186809629201889</output></split></split><split pos="right"><output>-0.2803274393081665</output></split></split><split pos="right"><output>0.5692699551582336</output></split></split><split pos="right"><output>0.20754782855510712</output></split></split></tree><tree id="35" weight="0.1"><split><feature>3</feature><threshold>0.60285157</threshold><split pos="left"><feature>3</feature><threshold>0.48228127</threshold><split pos="left"><feature>4</feature><threshold>2010.0</threshold><split pos="left"><feature>2</feature><threshold>31.0</threshold><split pos="left"><feature>2</feature><threshold>22.0</threshold><split pos="left"><feature>2</feature><threshold>9.0</threshold><split pos="left"><feature>1</feature><threshold>647185.5</threshold><split pos="left"><output>-0.09036239981651306</output></split><split pos="right"><output>0.2261355072259903</output></split></split><split pos="right"><output>0.5806546211242676</output></split></split><split pos="right"><output>1.3477855920791626</output></split></split><split pos="right"><output>-0.9313403964042664</output></split></split><split pos="right"><output>0.1600807160139084</output></split></split><split pos="right"><output>-0.26453307271003723</output></split></split><split pos="right"><feature>4</feature><threshold>1959.0</threshold><split pos="left"><output>1.108138918876648</output></split><split pos="right"><feature>1</feature><threshold>215728.5</threshold><split pos="left"><output>0.05865287780761719</output></split><split pos="right"><output>0.45736372470855713</output></split></split></split></split></tree><tree id="36" weight="0.1"><split><feature>3</feature><threshold>0.9042773</threshold><split pos="left"><feature>2</feature><threshold>7.0</threshold><split pos="left"><feature>2</feature><threshold>6.0</threshold><split pos="left"><feature>2</feature><threshold>3.0</threshold><split pos="left"><feature>1</feature><threshold>2696606.2</threshold><split pos="left"><feature>1</feature><threshold>1725828.0</threshold><split pos="left"><feature>1</feature><threshold>970778.25</threshold><split pos="left"><feature>1</feature><threshold>647185.5</threshold><split pos="left"><feature>4</feature><threshold>2014.0</threshold><split pos="left"><output>-0.08005031198263168</output></split><split pos="right"><output>0.07315743714570999</output></split></split><split pos="right"><output>-0.3106275498867035</output></split></split><split pos="right"><output>0.3273736834526062</output></split></split><split pos="right"><output>-0.8825090527534485</output></split></split><split pos="right"><output>0.4049696624279022</output></split></split><split pos="right"><output>0.9983053803443909</output></split></split><split pos="right"><output>-4.177852630615234</output></split></split><split pos="right"><output>0.6069878935813904</output></split></split><split pos="right"><output>0.22185727953910828</output></split></split></tree><tree id="37" weight="0.1"><split><feature>3</feature><threshold>0.9042773</threshold><split pos="left"><feature>2</feature><threshold>3.0</threshold><split pos="left"><feature>1</feature><threshold>2696606.2</threshold><split pos="left"><feature>1</feature><threshold>1725828.0</threshold><split pos="left"><feature>1</feature><threshold>970778.25</threshold><split pos="left"><feature>1</feature><threshold>647185.5</threshold><split pos="left"><feature>4</feature><threshold>2014.0</threshold><split pos="left"><feature>3</feature><threshold>0.8439922</threshold><split pos="left"><feature>3</feature><threshold>0.60285157</threshold><split pos="left"><output>-0.08246584236621857</output></split><split pos="right"><output>0.09915731847286224</output></split></split><split pos="right"><output>-0.6367008090019226</output></split></split><split pos="right"><output>0.04735079035162926</output></split></split><split pos="right"><output>-0.3298756778240204</output></split></split><split pos="right"><output>0.299785852432251</output></split></split><split pos="right"><output>-1.0870318412780762</output></split></split><split pos="right"><output>0.3500079810619354</output></split></split><split pos="right"><output>0.5296316146850586</output></split></split><split pos="right"><output>0.2107187658548355</output></split></split></tree><tree id="38" weight="0.1"><split><feature>3</feature><threshold>0.8439922</threshold><split pos="left"><feature>2</feature><threshold>3.0</threshold><split pos="left"><feature>4</feature><threshold>2015.0</threshold><split pos="left"><feature>3</feature><threshold>0.60285157</threshold><split pos="left"><feature>3</feature><threshold>0.48228127</threshold><split pos="left"><feature>4</feature><threshold>2011.0</threshold><split pos="left"><feature>1</feature><threshold>107864.25</threshold><split pos="left"><feature>2</feature><threshold>2.0</threshold><split pos="left"><feature>1</feature><threshold>0.0</threshold><split pos="left"><output>-0.18968819081783295</output></split><split pos="right"><output>-0.049117639660835266</output></split></split><split pos="right"><output>-1.7622469663619995</output></split></split><split pos="right"><output>0.10292379558086395</output></split></split><split pos="right"><output>0.20626404881477356</output></split></split><split pos="right"><output>-0.3308354914188385</output></split></split><split pos="right"><output>0.09095553308725357</output></split></split><split pos="right"><output>-0.24936193227767944</output></split></split><split pos="right"><output>0.4394039809703827</output></split></split><split pos="right"><output>0.18215611577033997</output></split></split></tree><tree id="39" weight="0.1"><split><feature>3</feature><threshold>0.8439922</threshold><split pos="left"><feature>2</feature><threshold>48.0</threshold><split pos="left"><feature>2</feature><threshold>7.0</threshold><split pos="left"><feature>4</feature><threshold>2012.0</threshold><split pos="left"><feature>4</feature><threshold>2010.0</threshold><split pos="left"><feature>4</feature><threshold>2009.0</threshold><split pos="left"><feature>3</feature><threshold>0.7234219</threshold><split pos="left"><feature>3</feature><threshold>0.5425664</threshold><split pos="left"><feature>4</feature><threshold>2006.0</threshold><split pos="left"><output>-0.05757797136902809</output></split><split pos="right"><output>-0.637885332107544</output></split></split><split pos="right"><output>0.2891584634780884</output></split></split><split pos="right"><output>-0.34190112352371216</output></split></split><split pos="right"><output>-0.5602312684059143</output></split></split><split pos="right"><output>0.25798317790031433</output></split></split><split pos="right"><output>-0.12812641263008118</output></split></split><split pos="right"><output>0.6190956234931946</output></split></split><split pos="right"><output>-1.5049984455108643</output></split></split><split pos="right"><output>0.17258231341838837</output></split></split></tree><tree id="40" weight="0.1"><split><feature>3</feature><threshold>0.8439922</threshold><split pos="left"><feature>2</feature><threshold>48.0</threshold><split pos="left"><feature>2</feature><threshold>3.0</threshold><split pos="left"><feature>4</feature><threshold>2012.0</threshold><split pos="left"><feature>4</feature><threshold>2010.0</threshold><split pos="left"><feature>4</feature><threshold>2009.0</threshold><split pos="left"><feature>2</feature><threshold>1.0</threshold><split pos="left"><output>-0.13480409979820251</output></split><split pos="right"><feature>1</feature><threshold>0.0</threshold><split pos="left"><output>0.4393175542354584</output></split><split pos="right"><feature>4</feature><threshold>2005.0</threshold><split pos="left"><output>0.030341655015945435</output></split><split pos="right"><output>-0.3923492133617401</output></split></split></split></split><split pos="right"><output>-0.5128121376037598</output></split></split><split pos="right"><output>0.22782403230667114</output></split></split><split pos="right"><output>-0.1184435784816742</output></split></split><split pos="right"><output>0.5581548810005188</output></split></split><split pos="right"><output>-1.2657214403152466</output></split></split><split pos="right"><output>0.16022802889347076</output></split></split></tree><tree id="41" weight="0.1"><split><feature>3</feature><threshold>1.0248476</threshold><split pos="left"><feature>2</feature><threshold>3.0</threshold><split pos="left"><feature>1</feature><threshold>2696606.2</threshold><split pos="left"><feature>1</feature><threshold>1725828.0</threshold><split pos="left"><feature>1</feature><threshold>970778.25</threshold><split pos="left"><feature>2</feature><threshold>1.0</threshold><split pos="left"><output>-0.1032947525382042</output></split><split pos="right"><feature>1</feature><threshold>0.0</threshold><split pos="left"><output>0.40733665227890015</output></split><split pos="right"><feature>3</feature><threshold>0.9042773</threshold><split pos="left"><feature>4</feature><threshold>2005.0</threshold><split pos="left"><output>0.022879447788000107</output></split><split pos="right"><output>-0.14188961684703827</output></split></split><split pos="right"><output>0.2437068372964859</output></split></split></split></split><split pos="right"><output>0.2726641893386841</output></split></split><split pos="right"><output>-0.8964917063713074</output></split></split><split pos="right"><output>0.4109245836734772</output></split></split><split pos="right"><output>0.4970627725124359</output></split></split><split pos="right"><output>0.19193734228610992</output></split></split></tree><tree id="42" weight="0.1"><split><feature>3</feature><threshold>2.2305515</threshold><split pos="left"><feature>3</feature><threshold>1.3262737</threshold><split pos="left"><feature>2</feature><threshold>3.0</threshold><split pos="left"><feature>4</feature><threshold>2015.0</threshold><split pos="left"><feature>3</feature><threshold>0.9042773</threshold><split pos="left"><feature>3</feature><threshold>0.8439922</threshold><split pos="left"><feature>3</feature><threshold>0.60285157</threshold><split pos="left"><feature>3</feature><threshold>0.48228127</threshold><split pos="left"><feature>4</feature><threshold>2011.0</threshold><split pos="left"><output>-0.05525733903050423</output></split><split pos="right"><output>0.22631771862506866</output></split></split><split pos="right"><output>-0.29609623551368713</output></split></split><split pos="right"><output>0.11052662134170532</output></split></split><split pos="right"><output>-0.2992743253707886</output></split></split><split pos="right"><output>0.28070738911628723</output></split></split><split pos="right"><output>-0.23551106452941895</output></split></split><split pos="right"><output>0.4721582233905792</output></split></split><split pos="right"><output>0.597721517086029</output></split></split><split pos="right"><output>-0.40653660893440247</output></split></split></tree><tree id="43" weight="0.1"><split><feature>1</feature><threshold>107864.25</threshold><split pos="left"><feature>3</feature><threshold>2.2305515</threshold><split pos="left"><feature>3</feature><threshold>1.3865589</threshold><split pos="left"><feature>2</feature><threshold>3.0</threshold><split pos="left"><feature>2</feature><threshold>1.0</threshold><split pos="left"><feature>3</feature><threshold>1.2057033</threshold><split pos="left"><feature>3</feature><threshold>0.5425664</threshold><split pos="left"><output>-0.06109151244163513</output></split><split pos="right"><output>-0.17148692905902863</output></split></split><split pos="right"><output>-0.9695249199867249</output></split></split><split pos="right"><feature>3</feature><threshold>0.60285157</threshold><split pos="left"><output>-0.06157974153757095</output></split><split pos="right"><output>0.16679450869560242</output></split></split></split><split pos="right"><output>0.5862780213356018</output></split></split><split pos="right"><output>0.5858543515205383</output></split></split><split pos="right"><output>-0.5343342423439026</output></split></split><split pos="right"><feature>4</feature><threshold>2015.0</threshold><split pos="left"><output>0.21458680927753448</output></split><split pos="right"><output>-0.9435067772865295</output></split></split></split></tree><tree id="44" weight="0.1"><split><feature>3</feature><threshold>0.8439922</threshold><split pos="left"><feature>2</feature><threshold>31.0</threshold><split pos="left"><feature>2</feature><threshold>3.0</threshold><split pos="left"><feature>1</feature><threshold>5716802.0</threshold><split pos="left"><feature>1</feature><threshold>2696606.2</threshold><split pos="left"><feature>4</feature><threshold>2012.0</threshold><split pos="left"><feature>4</feature><threshold>2010.0</threshold><split pos="left"><feature>4</feature><threshold>2009.0</threshold><split pos="left"><feature>3</feature><threshold>0.7234219</threshold><split pos="left"><output>-0.03290852904319763</output></split><split pos="right"><output>-0.26468539237976074</output></split></split><split pos="right"><output>-0.5961344242095947</output></split></split><split pos="right"><output>0.20428124070167542</output></split></split><split pos="right"><output>-0.10055053234100342</output></split></split><split pos="right"><output>0.7412899732589722</output></split></split><split pos="right"><output>-3.24466609954834</output></split></split><split pos="right"><output>0.5045638680458069</output></split></split><split pos="right"><output>-1.2797023057937622</output></split></split><split pos="right"><output>0.13820698857307434</output></split></split></tree><tree id="45" weight="0.1"><split><feature>3</feature><threshold>2.2305515</threshold><split pos="left"><feature>3</feature><threshold>1.3262737</threshold><split pos="left"><feature>3</feature><threshold>1.2659885</threshold><split pos="left"><feature>3</feature><threshold>1.0248476</threshold><split pos="left"><feature>2</feature><threshold>53.0</threshold><split pos="left"><feature>2</feature><threshold>3.0</threshold><split pos="left"><feature>1</feature><threshold>2696606.2</threshold><split pos="left"><feature>1</feature><threshold>1725828.0</threshold><split pos="left"><feature>1</feature><threshold>970778.25</threshold><split pos="left"><output>-0.03947184607386589</output></split><split pos="right"><output>0.24698173999786377</output></split></split><split pos="right"><output>-0.7078421711921692</output></split></split><split pos="right"><output>0.46359264850616455</output></split></split><split pos="right"><output>0.4627712368965149</output></split></split><split pos="right"><output>-1.0567238330841064</output></split></split><split pos="right"><output>0.28161510825157166</output></split></split><split pos="right"><output>-0.7086840271949768</output></split></split><split pos="right"><output>0.5641993284225464</output></split></split><split pos="right"><output>-0.35410889983177185</output></split></split></tree><tree id="46" weight="0.1"><split><feature>3</feature><threshold>2.2305515</threshold><split pos="left"><feature>3</feature><threshold>1.3865589</threshold><split pos="left"><feature>4</feature><threshold>2015.0</threshold><split pos="left"><feature>3</feature><threshold>0.9042773</threshold><split pos="left"><feature>2</feature><threshold>31.0</threshold><split pos="left"><feature>2</feature><threshold>15.0</threshold><split pos="left"><feature>3</feature><threshold>0.8439922</threshold><split pos="left"><feature>3</feature><threshold>0.60285157</threshold><split pos="left"><feature>4</feature><threshold>2005.0</threshold><split pos="left"><output>-0.024582969024777412</output></split><split pos="right"><output>-0.15979014337062836</output></split></split><split pos="right"><output>0.09034118801355362</output></split></split><split pos="right"><output>-0.251240074634552</output></split></split><split pos="right"><output>0.8232037425041199</output></split></split><split pos="right"><output>-0.9987249374389648</output></split></split><split pos="right"><output>0.32653215527534485</output></split></split><split pos="right"><output>-0.2525361478328705</output></split></split><split pos="right"><output>0.6500152945518494</output></split></split><split pos="right"><output>-0.3263329565525055</output></split></split></tree><tree id="47" weight="0.1"><split><feature>3</feature><threshold>0.8439922</threshold><split pos="left"><feature>2</feature><threshold>31.0</threshold><split pos="left"><feature>2</feature><threshold>3.0</threshold><split pos="left"><feature>3</feature><threshold>0.48228127</threshold><split pos="left"><feature>4</feature><threshold>2011.0</threshold><split pos="left"><feature>4</feature><threshold>2010.0</threshold><split pos="left"><feature>3</feature><threshold>0.36171097</threshold><split pos="left"><feature>3</feature><threshold>0.0</threshold><split pos="left"><feature>1</feature><threshold>0.0</threshold><split pos="left"><output>-0.1612778604030609</output></split><split pos="right"><output>-0.010085852816700935</output></split></split><split pos="right"><output>-0.6640112996101379</output></split></split><split pos="right"><output>0.2559984624385834</output></split></split><split pos="right"><output>-0.4676399230957031</output></split></split><split pos="right"><output>0.20357917249202728</output></split></split><split pos="right"><output>-0.08225633949041367</output></split></split><split pos="right"><output>0.43047934770584106</output></split></split><split pos="right"><output>-0.8485287427902222</output></split></split><split pos="right"><output>0.13036957383155823</output></split></split></tree><tree id="48" weight="0.1"><split><feature>1</feature><threshold>107864.25</threshold><split pos="left"><feature>3</feature><threshold>2.2305515</threshold><split pos="left"><feature>3</feature><threshold>1.3262737</threshold><split pos="left"><feature>2</feature><threshold>3.0</threshold><split pos="left"><feature>4</feature><threshold>2014.0</threshold><split pos="left"><feature>3</feature><threshold>1.2659885</threshold><split pos="left"><feature>3</feature><threshold>0.783707</threshold><split pos="left"><feature>3</feature><threshold>0.60285157</threshold><split pos="left"><feature>3</feature><threshold>0.48228127</threshold><split pos="left"><output>-0.04446427524089813</output></split><split pos="right"><output>-0.2396106868982315</output></split></split><split pos="right"><output>0.12340538203716278</output></split></split><split pos="right"><output>-0.17165766656398773</output></split></split><split pos="right"><output>0.5779895782470703</output></split></split><split pos="right"><output>0.07517419010400772</output></split></split><split pos="right"><output>0.5307846069335938</output></split></split><split pos="right"><output>0.41812270879745483</output></split></split><split pos="right"><output>-0.4619617462158203</output></split></split><split pos="right"><output>0.12522834539413452</output></split></split></tree><tree id="49" weight="0.1"><split><feature>1</feature><threshold>3128063.2</threshold><split pos="left"><feature>3</feature><threshold>8.138492</threshold><split pos="left"><feature>3</feature><threshold>5.4256616</threshold><split pos="left"><feature>3</feature><threshold>2.2305515</threshold><split pos="left"><feature>3</feature><threshold>1.3262737</threshold><split pos="left"><feature>3</feature><threshold>1.2659885</threshold><split pos="left"><feature>1</feature><threshold>1725828.0</threshold><split pos="left"><feature>3</feature><threshold>1.0248476</threshold><split pos="left"><feature>2</feature><threshold>53.0</threshold><split pos="left"><output>-0.02325139008462429</output></split><split pos="right"><output>-0.7912740707397461</output></split></split><split pos="right"><output>0.2830311357975006</output></split></split><split pos="right"><output>-0.8030984997749329</output></split></split><split pos="right"><output>-0.7303013205528259</output></split></split><split pos="right"><output>0.4939669668674469</output></split></split><split pos="right"><output>-0.336480975151062</output></split></split><split pos="right"><output>1.2431310415267944</output></split></split><split pos="right"><output>-2.5062172412872314</output></split></split><split pos="right"><output>0.6929326057434082</output></split></split></tree><tree id="50" weight="0.1"><split><feature>3</feature><threshold>5.4256616</threshold><split pos="left"><feature>3</feature><threshold>2.2305515</threshold><split pos="left"><feature>3</feature><threshold>1.3865589</threshold><split pos="left"><feature>4</feature><threshold>2015.0</threshold><split pos="left"><feature>3</feature><threshold>0.9042773</threshold><split pos="left"><feature>2</feature><threshold>31.0</threshold><split pos="left"><feature>2</feature><threshold>15.0</threshold><split pos="left"><feature>3</feature><threshold>0.8439922</threshold><split pos="left"><feature>3</feature><threshold>0.60285157</threshold><split pos="left"><output>-0.04130171239376068</output></split><split pos="right"><output>0.09131010621786118</output></split></split><split pos="right"><output>-0.22701920568943024</output></split></split><split pos="right"><output>0.7764995694160461</output></split></split><split pos="right"><output>-0.6876322031021118</output></split></split><split pos="right"><output>0.3083856999874115</output></split></split><split pos="right"><output>-0.25992172956466675</output></split></split><split pos="right"><output>0.6048084497451782</output></split></split><split pos="right"><output>-0.31247463822364807</output></split></split><split pos="right"><output>0.8399133682250977</output></split></split></tree><tree id="51" weight="0.1"><split><feature>3</feature><threshold>5.4256616</threshold><split pos="left"><feature>3</feature><threshold>2.1099813</threshold><split pos="left"><feature>3</feature><threshold>1.3262737</threshold><split pos="left"><feature>3</feature><threshold>1.2659885</threshold><split pos="left"><feature>3</feature><threshold>1.0248476</threshold><split pos="left"><feature>2</feature><threshold>53.0</threshold><split pos="left"><feature>2</feature><threshold>3.0</threshold><split pos="left"><feature>1</feature><threshold>5716802.0</threshold><split pos="left"><feature>1</feature><threshold>4206706.0</threshold><split pos="left"><output>-0.028255317360162735</output></split><split pos="right"><output>1.1209107637405396</output></split></split><split pos="right"><output>-1.2040289640426636</output></split></split><split pos="right"><output>0.37540239095687866</output></split></split><split pos="right"><output>-0.6517048478126526</output></split></split><split pos="right"><output>0.24365678429603577</output></split></split><split pos="right"><output>-0.7470876574516296</output></split></split><split pos="right"><output>0.4899792969226837</output></split></split><split pos="right"><output>-0.2827815115451813</output></split></split><split pos="right"><output>0.7910934090614319</output></split></split></tree><tree id="52" weight="0.1"><split><feature>3</feature><threshold>8.138492</threshold><split pos="left"><feature>3</feature><threshold>5.4256616</threshold><split pos="left"><feature>3</feature><threshold>2.2305515</threshold><split pos="left"><feature>3</feature><threshold>1.3262737</threshold><split pos="left"><feature>3</feature><threshold>1.2659885</threshold><split pos="left"><feature>3</feature><threshold>1.0248476</threshold><split pos="left"><feature>2</feature><threshold>53.0</threshold><split pos="left"><feature>2</feature><threshold>3.0</threshold><split pos="left"><feature>1</feature><threshold>2696606.2</threshold><split pos="left"><output>-0.02834034338593483</output></split><split pos="right"><output>0.38262516260147095</output></split></split><split pos="right"><output>0.35186782479286194</output></split></split><split pos="right"><output>-0.5755154490470886</output></split></split><split pos="right"><output>0.23473374545574188</output></split></split><split pos="right"><output>-0.6729022860527039</output></split></split><split pos="right"><output>0.45752015709877014</output></split></split><split pos="right"><output>-0.26658597588539124</output></split></split><split pos="right"><output>1.1890785694122314</output></split></split><split pos="right"><output>-2.5031654834747314</output></split></split></tree><tree id="53" weight="0.1"><split><feature>3</feature><threshold>0.8439922</threshold><split pos="left"><feature>2</feature><threshold>31.0</threshold><split pos="left"><feature>2</feature><threshold>15.0</threshold><split pos="left"><feature>4</feature><threshold>2012.0</threshold><split pos="left"><feature>4</feature><threshold>2010.0</threshold><split pos="left"><feature>2</feature><threshold>8.0</threshold><split pos="left"><feature>4</feature><threshold>2005.0</threshold><split pos="left"><feature>1</feature><threshold>0.0</threshold><split pos="left"><output>-0.17078134417533875</output></split><split pos="right"><feature>3</feature><threshold>0.5425664</threshold><split pos="left"><output>7.64993776101619E-4</output></split><split pos="right"><output>0.41097015142440796</output></split></split></split><split pos="right"><output>-0.22485379874706268</output></split></split><split pos="right"><output>-1.0171467065811157</output></split></split><split pos="right"><output>0.20279552042484283</output></split></split><split pos="right"><output>-0.07527939230203629</output></split></split><split pos="right"><output>0.5905698537826538</output></split></split><split pos="right"><output>-0.5643937587738037</output></split></split><split pos="right"><output>0.10580326616764069</output></split></split></tree><tree id="54" weight="0.1"><split><feature>1</feature><threshold>107864.25</threshold><split pos="left"><feature>3</feature><threshold>2.4114068</threshold><split pos="left"><feature>3</feature><threshold>2.3511217</threshold><split pos="left"><feature>2</feature><threshold>9.0</threshold><split pos="left"><feature>2</feature><threshold>6.0</threshold><split pos="left"><feature>2</feature><threshold>3.0</threshold><split pos="left"><feature>3</feature><threshold>1.3865589</threshold><split pos="left"><feature>2</feature><threshold>1.0</threshold><split pos="left"><output>-0.07799403369426727</output></split><split pos="right"><feature>3</feature><threshold>0.60285157</threshold><split pos="left"><output>-0.03500765562057495</output></split><split pos="right"><output>0.13786433637142181</output></split></split></split><split pos="right"><output>0.26444363594055176</output></split></split><split pos="right"><output>0.6025550365447998</output></split></split><split pos="right"><output>-1.4757342338562012</output></split></split><split pos="right"><output>0.6750879287719727</output></split></split><split pos="right"><output>5.725033760070801</output></split></split><split pos="right"><output>-0.3574889302253723</output></split></split><split pos="right"><output>0.09941930323839188</output></split></split></tree><tree id="55" weight="0.1"><split><feature>4</feature><threshold>2015.0</threshold><split pos="left"><feature>3</feature><threshold>0.9042773</threshold><split pos="left"><feature>3</feature><threshold>0.8439922</threshold><split pos="left"><feature>2</feature><threshold>31.0</threshold><split pos="left"><feature>2</feature><threshold>22.0</threshold><split pos="left"><feature>2</feature><threshold>19.0</threshold><split pos="left"><feature>2</feature><threshold>15.0</threshold><split pos="left"><feature>3</feature><threshold>0.60285157</threshold><split pos="left"><feature>4</feature><threshold>2005.0</threshold><split pos="left"><output>-0.010313263162970543</output></split><split pos="right"><output>-0.15120473504066467</output></split></split><split pos="right"><output>0.07267800718545914</output></split></split><split pos="right"><output>0.8787847757339478</output></split></split><split pos="right"><output>-1.7510600090026855</output></split></split><split pos="right"><output>1.1067519187927246</output></split></split><split pos="right"><output>-0.6731438040733337</output></split></split><split pos="right"><output>-0.22698254883289337</output></split></split><split pos="right"><output>0.2128121554851532</output></split></split><split pos="right"><output>-0.18541298806667328</output></split></split></tree><tree id="56" weight="0.1"><split><feature>3</feature><threshold>2.1099813</threshold><split pos="left"><feature>3</feature><threshold>1.3262737</threshold><split pos="left"><feature>3</feature><threshold>1.2659885</threshold><split pos="left"><feature>3</feature><threshold>1.0248476</threshold><split pos="left"><feature>4</feature><threshold>2014.0</threshold><split pos="left"><feature>4</feature><threshold>2011.0</threshold><split pos="left"><feature>3</feature><threshold>0.5425664</threshold><split pos="left"><feature>4</feature><threshold>2006.0</threshold><split pos="left"><feature>4</feature><threshold>2004.0</threshold><split pos="left"><output>-0.03382278233766556</output></split><split pos="right"><output>0.894830584526062</output></split></split><split pos="right"><output>-0.3496894836425781</output></split></split><split pos="right"><output>0.11195874959230423</output></split></split><split pos="right"><output>-0.14793825149536133</output></split></split><split pos="right"><output>0.07194557785987854</output></split></split><split pos="right"><output>0.21448957920074463</output></split></split><split pos="right"><output>-0.639961302280426</output></split></split><split pos="right"><output>0.445426344871521</output></split></split><split pos="right"><output>-0.23343636095523834</output></split></split></tree><tree id="57" weight="0.1"><split><feature>3</feature><threshold>5.4256616</threshold><split pos="left"><feature>3</feature><threshold>2.2305515</threshold><split pos="left"><feature>3</feature><threshold>1.3262737</threshold><split pos="left"><feature>3</feature><threshold>1.2659885</threshold><split pos="left"><feature>3</feature><threshold>1.0248476</threshold><split pos="left"><feature>4</feature><threshold>2014.0</threshold><split pos="left"><feature>4</feature><threshold>2011.0</threshold><split pos="left"><feature>3</feature><threshold>0.8439922</threshold><split pos="left"><feature>4</feature><threshold>2010.0</threshold><split pos="left"><output>-0.029366223141551018</output></split><split pos="right"><output>0.18311573565006256</output></split></split><split pos="right"><output>0.28595083951950073</output></split></split><split pos="right"><output>-0.14100000262260437</output></split></split><split pos="right"><output>0.06436609476804733</output></split></split><split pos="right"><output>0.20616881549358368</output></split></split><split pos="right"><output>-0.5882105827331543</output></split></split><split pos="right"><output>0.4163544476032257</output></split></split><split pos="right"><output>-0.27484333515167236</output></split></split><split pos="right"><output>0.7351133823394775</output></split></split></tree><tree id="58" weight="0.1"><split><feature>4</feature><threshold>2015.0</threshold><split pos="left"><feature>3</feature><threshold>0.9042773</threshold><split pos="left"><feature>4</feature><threshold>1998.0</threshold><split pos="left"><feature>3</feature><threshold>0.5425664</threshold><split pos="left"><feature>2</feature><threshold>2.0</threshold><split pos="left"><feature>1</feature><threshold>1617963.8</threshold><split pos="left"><feature>1</feature><threshold>1510099.5</threshold><split pos="left"><feature>1</feature><threshold>1078642.5</threshold><split pos="left"><feature>1</feature><threshold>647185.5</threshold><split pos="left"><output>-0.017189713194966316</output></split><split pos="right"><output>0.5839605331420898</output></split></split><split pos="right"><output>-0.4638661742210388</output></split></split><split pos="right"><output>1.2736022472381592</output></split></split><split pos="right"><output>-0.757123589515686</output></split></split><split pos="right"><output>-0.6822785139083862</output></split></split><split pos="right"><output>0.6381285190582275</output></split></split><split pos="right"><output>-0.059674277901649475</output></split></split><split pos="right"><output>0.19991016387939453</output></split></split><split pos="right"><output>-0.18908017873764038</output></split></split></tree><tree id="59" weight="0.1"><split><feature>3</feature><threshold>2.1099813</threshold><split pos="left"><feature>3</feature><threshold>1.3262737</threshold><split pos="left"><feature>3</feature><threshold>1.2659885</threshold><split pos="left"><feature>4</feature><threshold>2014.0</threshold><split pos="left"><feature>4</feature><threshold>2012.0</threshold><split pos="left"><feature>1</feature><threshold>107864.25</threshold><split pos="left"><feature>2</feature><threshold>3.0</threshold><split pos="left"><feature>4</feature><threshold>1998.0</threshold><split pos="left"><feature>3</feature><threshold>0.60285157</threshold><split pos="left"><output>-0.0314645990729332</output></split><split pos="right"><output>0.46745890378952026</output></split></split><split pos="right"><output>-0.09438782185316086</output></split></split><split pos="right"><output>0.5617712736129761</output></split></split><split pos="right"><output>0.11049266904592514</output></split></split><split pos="right"><output>-0.15522010624408722</output></split></split><split pos="right"><output>0.10150976479053497</output></split></split><split pos="right"><output>-0.5415533185005188</output></split></split><split pos="right"><output>0.41941994428634644</output></split></split><split pos="right"><output>-0.22176912426948547</output></split></split></tree><tree id="60" weight="0.1"><split><feature>4</feature><threshold>2015.0</threshold><split pos="left"><feature>3</feature><threshold>0.9042773</threshold><split pos="left"><feature>3</feature><threshold>0.8439922</threshold><split pos="left"><feature>1</feature><threshold>323592.75</threshold><split pos="left"><feature>4</feature><threshold>2010.0</threshold><split pos="left"><feature>4</feature><threshold>2009.0</threshold><split pos="left"><feature>3</feature><threshold>0.7234219</threshold><split pos="left"><feature>3</feature><threshold>0.36171097</threshold><split pos="left"><feature>2</feature><threshold>2.0</threshold><split pos="left"><output>-0.02066163904964924</output></split><split pos="right"><output>-0.6136606335639954</output></split></split><split pos="right"><output>0.15172508358955383</output></split></split><split pos="right"><output>-0.3081100285053253</output></split></split><split pos="right"><output>-0.551071047782898</output></split></split><split pos="right"><output>0.06812571734189987</output></split></split><split pos="right"><output>-0.13560838997364044</output></split></split><split pos="right"><output>-0.21726655960083008</output></split></split><split pos="right"><output>0.18929998576641083</output></split></split><split pos="right"><output>-0.14802075922489166</output></split></split></tree><tree id="61" weight="0.1"><split><feature>3</feature><threshold>2.2305515</threshold><split pos="left"><feature>3</feature><threshold>1.3865589</threshold><split pos="left"><feature>4</feature><threshold>2015.0</threshold><split pos="left"><feature>3</feature><threshold>1.2659885</threshold><split pos="left"><feature>4</feature><threshold>2014.0</threshold><split pos="left"><feature>4</feature><threshold>2012.0</threshold><split pos="left"><feature>1</feature><threshold>3235927.5</threshold><split pos="left"><feature>1</feature><threshold>1078642.5</threshold><split pos="left"><feature>1</feature><threshold>862914.0</threshold><split pos="left"><output>-0.009451651014387608</output></split><split pos="right"><output>0.7799215912818909</output></split></split><split pos="right"><output>-0.4337926506996155</output></split></split><split pos="right"><output>0.6127621531486511</output></split></split><split pos="right"><output>-0.1457972377538681</output></split></split><split pos="right"><output>0.17968179285526276</output></split></split><split pos="right"><output>0.7174584865570068</output></split></split><split pos="right"><output>-0.21441514790058136</output></split></split><split pos="right"><output>0.513222336769104</output></split></split><split pos="right"><output>-0.22004280984401703</output></split></split></tree><tree id="62" weight="0.1"><split><feature>3</feature><threshold>5.4256616</threshold><split pos="left"><feature>3</feature><threshold>2.2305515</threshold><split pos="left"><feature>3</feature><threshold>1.3865589</threshold><split pos="left"><feature>4</feature><threshold>2015.0</threshold><split pos="left"><feature>3</feature><threshold>1.2659885</threshold><split pos="left"><feature>4</feature><threshold>2014.0</threshold><split pos="left"><feature>4</feature><threshold>2012.0</threshold><split pos="left"><feature>3</feature><threshold>0.36171097</threshold><split pos="left"><feature>3</feature><threshold>0.0</threshold><split pos="left"><output>-0.02650933526456356</output></split><split pos="right"><output>-0.6379725337028503</output></split></split><split pos="right"><output>0.08034328371286392</output></split></split><split pos="right"><output>-0.13377074897289276</output></split></split><split pos="right"><output>0.1656946986913681</output></split></split><split pos="right"><output>0.6654213666915894</output></split></split><split pos="right"><output>-0.203825905919075</output></split></split><split pos="right"><output>0.4929913878440857</output></split></split><split pos="right"><output>-0.2530158758163452</output></split></split><split pos="right"><output>0.7088996171951294</output></split></split></tree><tree id="63" weight="0.1"><split><feature>1</feature><threshold>107864.25</threshold><split pos="left"><feature>3</feature><threshold>2.2305515</threshold><split pos="left"><feature>2</feature><threshold>8.0</threshold><split pos="left"><feature>2</feature><threshold>6.0</threshold><split pos="left"><feature>2</feature><threshold>3.0</threshold><split pos="left"><feature>4</feature><threshold>2014.0</threshold><split pos="left"><feature>3</feature><threshold>1.2659885</threshold><split pos="left"><feature>3</feature><threshold>0.783707</threshold><split pos="left"><feature>4</feature><threshold>2011.0</threshold><split pos="left"><output>-0.03446131572127342</output></split><split pos="right"><output>0.13754640519618988</output></split></split><split pos="right"><output>-0.1857818067073822</output></split></split><split pos="right"><output>0.32344546914100647</output></split></split><split pos="right"><output>0.07177698612213135</output></split></split><split pos="right"><output>0.5115900039672852</output></split></split><split pos="right"><output>-1.7644152641296387</output></split></split><split pos="right"><output>0.6160226464271545</output></split></split><split pos="right"><output>-0.2934480309486389</output></split></split><split pos="right"><output>0.08233007043600082</output></split></split></tree><tree id="64" weight="0.1"><split><feature>3</feature><threshold>3.858249</threshold><split pos="left"><feature>3</feature><threshold>3.4362533</threshold><split pos="left"><feature>3</feature><threshold>3.3759682</threshold><split pos="left"><feature>3</feature><threshold>2.7731173</threshold><split pos="left"><feature>3</feature><threshold>2.7128322</threshold><split pos="left"><feature>3</feature><threshold>2.2305515</threshold><split pos="left"><feature>3</feature><threshold>1.3865589</threshold><split pos="left"><feature>4</feature><threshold>2015.0</threshold><split pos="left"><feature>3</feature><threshold>1.0851328</threshold><split pos="left"><output>-0.014409638941287994</output></split><split pos="right"><output>0.35879576206207275</output></split></split><split pos="right"><output>-0.18702735006809235</output></split></split><split pos="right"><output>0.47342875599861145</output></split></split><split pos="right"><output>-0.45376554131507874</output></split></split><split pos="right"><output>-1.8366276025772095</output></split></split><split pos="right"><output>0.4484974145889282</output></split></split><split pos="right"><output>1.4499205350875854</output></split></split><split pos="right"><output>-1.747011423110962</output></split></split><split pos="right"><output>0.3778087794780731</output></split></split></tree><tree id="65" weight="0.1"><split><feature>3</feature><threshold>8.138492</threshold><split pos="left"><feature>3</feature><threshold>5.4256616</threshold><split pos="left"><feature>3</feature><threshold>0.7234219</threshold><split pos="left"><feature>1</feature><threshold>323592.75</threshold><split pos="left"><feature>3</feature><threshold>0.48228127</threshold><split pos="left"><feature>4</feature><threshold>2011.0</threshold><split pos="left"><feature>2</feature><threshold>2.0</threshold><split pos="left"><feature>1</feature><threshold>107864.25</threshold><split pos="left"><feature>4</feature><threshold>2010.0</threshold><split pos="left"><output>-0.028566209599375725</output></split><split pos="right"><output>-0.33551454544067383</output></split></split><split pos="right"><output>0.13403522968292236</output></split></split><split pos="right"><output>-0.6012325882911682</output></split></split><split pos="right"><output>0.2847917973995209</output></split></split><split pos="right"><output>-0.0873657613992691</output></split></split><split pos="right"><output>-0.24096576869487762</output></split></split><split pos="right"><output>0.07095497101545334</output></split></split><split pos="right"><output>1.1416101455688477</output></split></split><split pos="right"><output>-2.7876572608947754</output></split></split></tree><tree id="66" weight="0.1"><split><feature>3</feature><threshold>3.858249</threshold><split pos="left"><feature>3</feature><threshold>3.7979639</threshold><split pos="left"><feature>2</feature><threshold>3.0</threshold><split pos="left"><feature>3</feature><threshold>1.0248476</threshold><split pos="left"><feature>3</feature><threshold>0.48228127</threshold><split pos="left"><feature>4</feature><threshold>2011.0</threshold><split pos="left"><feature>1</feature><threshold>1617963.8</threshold><split pos="left"><feature>1</feature><threshold>1510099.5</threshold><split pos="left"><feature>4</feature><threshold>2010.0</threshold><split pos="left"><output>-0.018470609560608864</output></split><split pos="right"><output>-0.3011557459831238</output></split></split><split pos="right"><output>1.233506441116333</output></split></split><split pos="right"><output>-0.6849117279052734</output></split></split><split pos="right"><output>0.19783782958984375</output></split></split><split pos="right"><output>-0.06197305768728256</output></split></split><split pos="right"><output>0.09402848780155182</output></split></split><split pos="right"><output>0.2901234030723572</output></split></split><split pos="right"><output>-2.358898162841797</output></split></split><split pos="right"><output>0.4774410128593445</output></split></split></tree><tree id="67" weight="0.1"><split><feature>1</feature><threshold>3128063.2</threshold><split pos="left"><feature>3</feature><threshold>0.6631367</threshold><split pos="left"><feature>4</feature><threshold>2013.0</threshold><split pos="left"><feature>1</feature><threshold>1078642.5</threshold><split pos="left"><feature>1</feature><threshold>862914.0</threshold><split pos="left"><feature>3</feature><threshold>0.60285157</threshold><split pos="left"><feature>3</feature><threshold>0.48228127</threshold><split pos="left"><feature>4</feature><threshold>2011.0</threshold><split pos="left"><feature>2</feature><threshold>2.0</threshold><split pos="left"><output>-0.019756240770220757</output></split><split pos="right"><output>-0.42043283581733704</output></split></split><split pos="right"><output>0.5724397897720337</output></split></split><split pos="right"><output>-0.2505911588668823</output></split></split><split pos="right"><output>0.3374939560890198</output></split></split><split pos="right"><output>0.7504252791404724</output></split></split><split pos="right"><output>-0.42343559861183167</output></split></split><split pos="right"><output>-0.147060364484787</output></split></split><split pos="right"><output>0.05219445377588272</output></split></split><split pos="right"><output>0.47403958439826965</output></split></split></tree><tree id="68" weight="0.1"><split><feature>2</feature><threshold>1.0</threshold><split pos="left"><output>-0.06306079775094986</output></split><split pos="right"><feature>3</feature><threshold>2.7731173</threshold><split pos="left"><feature>3</feature><threshold>2.1099813</threshold><split pos="left"><feature>3</feature><threshold>0.9042773</threshold><split pos="left"><feature>1</feature><threshold>0.0</threshold><split pos="left"><output>0.3272954523563385</output></split><split pos="right"><feature>4</feature><threshold>2001.0</threshold><split pos="left"><feature>3</feature><threshold>0.5425664</threshold><split pos="left"><feature>4</feature><threshold>2000.0</threshold><split pos="left"><feature>4</feature><threshold>1999.0</threshold><split pos="left"><output>0.008982825092971325</output></split><split pos="right"><output>-1.610400915145874</output></split></split><split pos="right"><output>0.8631649017333984</output></split></split><split pos="right"><output>0.5502623319625854</output></split></split><split pos="right"><output>-0.09626138210296631</output></split></split></split><split pos="right"><output>0.22076256573200226</output></split></split><split pos="right"><output>-0.5667752623558044</output></split></split><split pos="right"><output>0.4763830304145813</output></split></split></split></tree><tree id="69" weight="0.1"><split><feature>2</feature><threshold>1.0</threshold><split pos="left"><output>-0.06271781772375107</output></split><split pos="right"><feature>3</feature><threshold>2.7731173</threshold><split pos="left"><feature>3</feature><threshold>2.1099813</threshold><split pos="left"><feature>4</feature><threshold>2015.0</threshold><split pos="left"><feature>3</feature><threshold>0.9042773</threshold><split pos="left"><feature>4</feature><threshold>2009.0</threshold><split pos="left"><feature>3</feature><threshold>0.5425664</threshold><split pos="left"><feature>1</feature><threshold>0.0</threshold><split pos="left"><output>-1.693784475326538</output></split><split pos="right"><feature>3</feature><threshold>0.48228127</threshold><split pos="left"><output>0.01486182864755392</output></split><split pos="right"><output>-0.43190762400627136</output></split></split></split><split pos="right"><output>0.26445287466049194</output></split></split><split pos="right"><output>-0.10885904729366302</output></split></split><split pos="right"><output>0.3757286071777344</output></split></split><split pos="right"><output>-0.22408904135227203</output></split></split><split pos="right"><output>-0.5010301470756531</output></split></split><split pos="right"><output>0.4275614023208618</output></split></split></split></tree><tree id="70" weight="0.1"><split><feature>2</feature><threshold>1.0</threshold><split pos="left"><output>-0.05775686725974083</output></split><split pos="right"><feature>3</feature><threshold>2.7731173</threshold><split pos="left"><feature>3</feature><threshold>2.1099813</threshold><split pos="left"><feature>3</feature><threshold>0.9042773</threshold><split pos="left"><feature>1</feature><threshold>0.0</threshold><split pos="left"><output>0.3299335241317749</output></split><split pos="right"><feature>4</feature><threshold>2001.0</threshold><split pos="left"><feature>3</feature><threshold>0.5425664</threshold><split pos="left"><feature>4</feature><threshold>2000.0</threshold><split pos="left"><feature>2</feature><threshold>2.0</threshold><split pos="left"><output>0.004839712288230658</output></split><split pos="right"><output>-0.46378642320632935</output></split></split><split pos="right"><output>0.8120791912078857</output></split></split><split pos="right"><output>0.5533154606819153</output></split></split><split pos="right"><output>-0.08002393692731857</output></split></split></split><split pos="right"><output>0.20804965496063232</output></split></split><split pos="right"><output>-0.4860188066959381</output></split></split><split pos="right"><output>0.3979302644729614</output></split></split></split></tree><tree id="71" weight="0.1"><split><feature>2</feature><threshold>2.0</threshold><split pos="left"><feature>3</feature><threshold>0.8439922</threshold><split pos="left"><feature>1</feature><threshold>5716802.0</threshold><split pos="left"><feature>1</feature><threshold>4206706.0</threshold><split pos="left"><feature>1</feature><threshold>323592.75</threshold><split pos="left"><feature>3</feature><threshold>0.48228127</threshold><split pos="left"><feature>4</feature><threshold>2011.0</threshold><split pos="left"><feature>1</feature><threshold>107864.25</threshold><split pos="left"><feature>4</feature><threshold>2010.0</threshold><split pos="left"><output>-0.03664082661271095</output></split><split pos="right"><output>-0.49827060103416443</output></split></split><split pos="right"><output>0.18621082603931427</output></split></split><split pos="right"><output>0.24806447327136993</output></split></split><split pos="right"><output>-0.07750608026981354</output></split></split><split pos="right"><output>-0.1667633205652237</output></split></split><split pos="right"><output>1.093083381652832</output></split></split><split pos="right"><output>-3.0445122718811035</output></split></split><split pos="right"><output>0.07252339273691177</output></split></split><split pos="right"><output>0.32787424325942993</output></split></split></tree><tree id="72" weight="0.1"><split><feature>3</feature><threshold>0.783707</threshold><split pos="left"><feature>1</feature><threshold>431457.0</threshold><split pos="left"><feature>2</feature><threshold>9.0</threshold><split pos="left"><feature>2</feature><threshold>6.0</threshold><split pos="left"><feature>2</feature><threshold>3.0</threshold><split pos="left"><feature>3</feature><threshold>0.48228127</threshold><split pos="left"><feature>4</feature><threshold>2011.0</threshold><split pos="left"><feature>4</feature><threshold>2010.0</threshold><split pos="left"><feature>3</feature><threshold>0.36171097</threshold><split pos="left"><output>-0.02939126081764698</output></split><split pos="right"><output>0.28046101331710815</output></split></split><split pos="right"><output>-0.4450487792491913</output></split></split><split pos="right"><output>0.24380053579807281</output></split></split><split pos="right"><output>-0.06994921714067459</output></split></split><split pos="right"><output>0.48278912901878357</output></split></split><split pos="right"><output>-1.9378225803375244</output></split></split><split pos="right"><output>0.4450366199016571</output></split></split><split pos="right"><output>-0.16835743188858032</output></split></split><split pos="right"><output>0.07424543052911758</output></split></split></tree><tree id="73" weight="0.1"><split><feature>2</feature><threshold>1.0</threshold><split pos="left"><output>-0.05462135374546051</output></split><split pos="right"><feature>3</feature><threshold>0.60285157</threshold><split pos="left"><feature>4</feature><threshold>2005.0</threshold><split pos="left"><feature>3</feature><threshold>0.5425664</threshold><split pos="left"><feature>4</feature><threshold>2004.0</threshold><split pos="left"><feature>1</feature><threshold>0.0</threshold><split pos="left"><output>-1.504894733428955</output></split><split pos="right"><feature>2</feature><threshold>2.0</threshold><split pos="left"><feature>1</feature><threshold>647185.5</threshold><split pos="left"><output>-0.007760221138596535</output></split><split pos="right"><output>0.16983112692832947</output></split></split><split pos="right"><output>-0.4217054843902588</output></split></split></split><split pos="right"><output>0.9522286057472229</output></split></split><split pos="right"><output>0.9906617999076843</output></split></split><split pos="right"><output>-0.17218200862407684</output></split></split><split pos="right"><feature>1</feature><threshold>0.0</threshold><split pos="left"><output>0.7523760795593262</output></split><split pos="right"><output>0.10336765646934509</output></split></split></split></split></tree><tree id="74" weight="0.1"><split><feature>2</feature><threshold>2.0</threshold><split pos="left"><feature>1</feature><threshold>107864.25</threshold><split pos="left"><feature>3</feature><threshold>2.4114068</threshold><split pos="left"><feature>3</feature><threshold>2.3511217</threshold><split pos="left"><feature>4</feature><threshold>2006.0</threshold><split pos="left"><feature>3</feature><threshold>2.0496962</threshold><split pos="left"><feature>3</feature><threshold>1.2057033</threshold><split pos="left"><feature>4</feature><threshold>2005.0</threshold><split pos="left"><feature>3</feature><threshold>0.7234219</threshold><split pos="left"><output>-0.02252163179218769</output></split><split pos="right"><output>-0.3211338222026825</output></split></split><split pos="right"><output>-0.7257587313652039</output></split></split><split pos="right"><output>0.7718976736068726</output></split></split><split pos="right"><output>-1.2095282077789307</output></split></split><split pos="right"><output>0.04353857412934303</output></split></split><split pos="right"><output>5.116621017456055</output></split></split><split pos="right"><output>-0.3195447027683258</output></split></split><split pos="right"><output>0.060263775289058685</output></split></split><split pos="right"><output>0.3349030017852783</output></split></split></tree><tree id="75" weight="0.1"><split><feature>1</feature><threshold>3128063.2</threshold><split pos="left"><feature>4</feature><threshold>2015.0</threshold><split pos="left"><feature>3</feature><threshold>1.0851328</threshold><split pos="left"><feature>1</feature><threshold>1725828.0</threshold><split pos="left"><feature>2</feature><threshold>9.0</threshold><split pos="left"><feature>2</feature><threshold>8.0</threshold><split pos="left"><feature>3</feature><threshold>0.48228127</threshold><split pos="left"><feature>4</feature><threshold>2011.0</threshold><split pos="left"><feature>1</feature><threshold>647185.5</threshold><split pos="left"><output>-0.018850093707442284</output></split><split pos="right"><output>0.2920371890068054</output></split></split><split pos="right"><output>0.2279236912727356</output></split></split><split pos="right"><output>-0.06412294507026672</output></split></split><split pos="right"><output>-1.0594518184661865</output></split></split><split pos="right"><output>0.37857940793037415</output></split></split><split pos="right"><output>-0.6399364471435547</output></split></split><split pos="right"><output>0.1834476888179779</output></split></split><split pos="right"><output>-0.1074778288602829</output></split></split><split 